tree
version=v4
num_class=1
num_tree_per_iteration=1
label_index=0
max_feature_idx=1888
objective=binary sigmoid:1
feature_names=Column_0 Column_1 Column_2 Column_3 Column_4 Column_5 Column_6 Column_7 Column_8 Column_9 Column_10 Column_11 Column_12 Column_13 Column_14 Column_15 Column_16 Column_17 Column_18 Column_19 Column_20 Column_21 Column_22 Column_23 Column_24 Column_25 Column_26 Column_27 Column_28 Column_29 Column_30 Column_31 Column_32 Column_33 Column_34 Column_35 Column_36 Column_37 Column_38 Column_39 Column_40 Column_41 Column_42 Column_43 Column_44 Column_45 Column_46 Column_47 Column_48 Column_49 Column_50 Column_51 Column_52 Column_53 Column_54 Column_55 Column_56 Column_57 Column_58 Column_59 Column_60 Column_61 Column_62 Column_63 Column_64 Column_65 Column_66 Column_67 Column_68 Column_69 Column_70 Column_71 Column_72 Column_73 Column_74 Column_75 Column_76 Column_77 Column_78 Column_79 Column_80 Column_81 Column_82 Column_83 Column_84 Column_85 Column_86 Column_87 Column_88 Column_89 Column_90 Column_91 Column_92 Column_93 Column_94 Column_95 Column_96 Column_97 Column_98 Column_99 Column_100 Column_101 Column_102 Column_103 Column_104 Column_105 Column_106 Column_107 Column_108 Column_109 Column_110 Column_111 Column_112 Column_113 Column_114 Column_115 Column_116 Column_117 Column_118 Column_119 Column_120 Column_121 Column_122 Column_123 Column_124 Column_125 Column_126 Column_127 Column_128 Column_129 Column_130 Column_131 Column_132 Column_133 Column_134 Column_135 Column_136 Column_137 Column_138 Column_139 Column_140 Column_141 Column_142 Column_143 Column_144 Column_145 Column_146 Column_147 Column_148 Column_149 Column_150 Column_151 Column_152 Column_153 Column_154 Column_155 Column_156 Column_157 Column_158 Column_159 Column_160 Column_161 Column_162 Column_163 Column_164 Column_165 Column_166 Column_167 Column_168 Column_169 Column_170 Column_171 Column_172 Column_173 Column_174 Column_175 Column_176 Column_177 Column_178 Column_179 Column_180 Column_181 Column_182 Column_183 Column_184 Column_185 Column_186 Column_187 Column_188 Column_189 Column_190 Column_191 Column_192 Column_193 Column_194 Column_195 Column_196 Column_197 Column_198 Column_199 Column_200 Column_201 Column_202 Column_203 Column_204 Column_205 Column_206 Column_207 Column_208 Column_209 Column_210 Column_211 Column_212 Column_213 Column_214 Column_215 Column_216 Column_217 Column_218 Column_219 Column_220 Column_221 Column_222 Column_223 Column_224 Column_225 Column_226 Column_227 Column_228 Column_229 Column_230 Column_231 Column_232 Column_233 Column_234 Column_235 Column_236 Column_237 Column_238 Column_239 Column_240 Column_241 Column_242 Column_243 Column_244 Column_245 Column_246 Column_247 Column_248 Column_249 Column_250 Column_251 Column_252 Column_253 Column_254 Column_255 Column_256 Column_257 Column_258 Column_259 Column_260 Column_261 Column_262 Column_263 Column_264 Column_265 Column_266 Column_267 Column_268 Column_269 Column_270 Column_271 Column_272 Column_273 Column_274 Column_275 Column_276 Column_277 Column_278 Column_279 Column_280 Column_281 Column_282 Column_283 Column_284 Column_285 Column_286 Column_287 Column_288 Column_289 Column_290 Column_291 Column_292 Column_293 Column_294 Column_295 Column_296 Column_297 Column_298 Column_299 Column_300 Column_301 Column_302 Column_303 Column_304 Column_305 Column_306 Column_307 Column_308 Column_309 Column_310 Column_311 Column_312 Column_313 Column_314 Column_315 Column_316 Column_317 Column_318 Column_319 Column_320 Column_321 Column_322 Column_323 Column_324 Column_325 Column_326 Column_327 Column_328 Column_329 Column_330 Column_331 Column_332 Column_333 Column_334 Column_335 Column_336 Column_337 Column_338 Column_339 Column_340 Column_341 Column_342 Column_343 Column_344 Column_345 Column_346 Column_347 Column_348 Column_349 Column_350 Column_351 Column_352 Column_353 Column_354 Column_355 Column_356 Column_357 Column_358 Column_359 Column_360 Column_361 Column_362 Column_363 Column_364 Column_365 Column_366 Column_367 Column_368 Column_369 Column_370 Column_371 Column_372 Column_373 Column_374 Column_375 Column_376 Column_377 Column_378 Column_379 Column_380 Column_381 Column_382 Column_383 Column_384 Column_385 Column_386 Column_387 Column_388 Column_389 Column_390 Column_391 Column_392 Column_393 Column_394 Column_395 Column_396 Column_397 Column_398 Column_399 Column_400 Column_401 Column_402 Column_403 Column_404 Column_405 Column_406 Column_407 Column_408 Column_409 Column_410 Column_411 Column_412 Column_413 Column_414 Column_415 Column_416 Column_417 Column_418 Column_419 Column_420 Column_421 Column_422 Column_423 Column_424 Column_425 Column_426 Column_427 Column_428 Column_429 Column_430 Column_431 Column_432 Column_433 Column_434 Column_435 Column_436 Column_437 Column_438 Column_439 Column_440 Column_441 Column_442 Column_443 Column_444 Column_445 Column_446 Column_447 Column_448 Column_449 Column_450 Column_451 Column_452 Column_453 Column_454 Column_455 Column_456 Column_457 Column_458 Column_459 Column_460 Column_461 Column_462 Column_463 Column_464 Column_465 Column_466 Column_467 Column_468 Column_469 Column_470 Column_471 Column_472 Column_473 Column_474 Column_475 Column_476 Column_477 Column_478 Column_479 Column_480 Column_481 Column_482 Column_483 Column_484 Column_485 Column_486 Column_487 Column_488 Column_489 Column_490 Column_491 Column_492 Column_493 Column_494 Column_495 Column_496 Column_497 Column_498 Column_499 Column_500 Column_501 Column_502 Column_503 Column_504 Column_505 Column_506 Column_507 Column_508 Column_509 Column_510 Column_511 Column_512 Column_513 Column_514 Column_515 Column_516 Column_517 Column_518 Column_519 Column_520 Column_521 Column_522 Column_523 Column_524 Column_525 Column_526 Column_527 Column_528 Column_529 Column_530 Column_531 Column_532 Column_533 Column_534 Column_535 Column_536 Column_537 Column_538 Column_539 Column_540 Column_541 Column_542 Column_543 Column_544 Column_545 Column_546 Column_547 Column_548 Column_549 Column_550 Column_551 Column_552 Column_553 Column_554 Column_555 Column_556 Column_557 Column_558 Column_559 Column_560 Column_561 Column_562 Column_563 Column_564 Column_565 Column_566 Column_567 Column_568 Column_569 Column_570 Column_571 Column_572 Column_573 Column_574 Column_575 Column_576 Column_577 Column_578 Column_579 Column_580 Column_581 Column_582 Column_583 Column_584 Column_585 Column_586 Column_587 Column_588 Column_589 Column_590 Column_591 Column_592 Column_593 Column_594 Column_595 Column_596 Column_597 Column_598 Column_599 Column_600 Column_601 Column_602 Column_603 Column_604 Column_605 Column_606 Column_607 Column_608 Column_609 Column_610 Column_611 Column_612 Column_613 Column_614 Column_615 Column_616 Column_617 Column_618 Column_619 Column_620 Column_621 Column_622 Column_623 Column_624 Column_625 Column_626 Column_627 Column_628 Column_629 Column_630 Column_631 Column_632 Column_633 Column_634 Column_635 Column_636 Column_637 Column_638 Column_639 Column_640 Column_641 Column_642 Column_643 Column_644 Column_645 Column_646 Column_647 Column_648 Column_649 Column_650 Column_651 Column_652 Column_653 Column_654 Column_655 Column_656 Column_657 Column_658 Column_659 Column_660 Column_661 Column_662 Column_663 Column_664 Column_665 Column_666 Column_667 Column_668 Column_669 Column_670 Column_671 Column_672 Column_673 Column_674 Column_675 Column_676 Column_677 Column_678 Column_679 Column_680 Column_681 Column_682 Column_683 Column_684 Column_685 Column_686 Column_687 Column_688 Column_689 Column_690 Column_691 Column_692 Column_693 Column_694 Column_695 Column_696 Column_697 Column_698 Column_699 Column_700 Column_701 Column_702 Column_703 Column_704 Column_705 Column_706 Column_707 Column_708 Column_709 Column_710 Column_711 Column_712 Column_713 Column_714 Column_715 Column_716 Column_717 Column_718 Column_719 Column_720 Column_721 Column_722 Column_723 Column_724 Column_725 Column_726 Column_727 Column_728 Column_729 Column_730 Column_731 Column_732 Column_733 Column_734 Column_735 Column_736 Column_737 Column_738 Column_739 Column_740 Column_741 Column_742 Column_743 Column_744 Column_745 Column_746 Column_747 Column_748 Column_749 Column_750 Column_751 Column_752 Column_753 Column_754 Column_755 Column_756 Column_757 Column_758 Column_759 Column_760 Column_761 Column_762 Column_763 Column_764 Column_765 Column_766 Column_767 Column_768 Column_769 Column_770 Column_771 Column_772 Column_773 Column_774 Column_775 Column_776 Column_777 Column_778 Column_779 Column_780 Column_781 Column_782 Column_783 Column_784 Column_785 Column_786 Column_787 Column_788 Column_789 Column_790 Column_791 Column_792 Column_793 Column_794 Column_795 Column_796 Column_797 Column_798 Column_799 Column_800 Column_801 Column_802 Column_803 Column_804 Column_805 Column_806 Column_807 Column_808 Column_809 Column_810 Column_811 Column_812 Column_813 Column_814 Column_815 Column_816 Column_817 Column_818 Column_819 Column_820 Column_821 Column_822 Column_823 Column_824 Column_825 Column_826 Column_827 Column_828 Column_829 Column_830 Column_831 Column_832 Column_833 Column_834 Column_835 Column_836 Column_837 Column_838 Column_839 Column_840 Column_841 Column_842 Column_843 Column_844 Column_845 Column_846 Column_847 Column_848 Column_849 Column_850 Column_851 Column_852 Column_853 Column_854 Column_855 Column_856 Column_857 Column_858 Column_859 Column_860 Column_861 Column_862 Column_863 Column_864 Column_865 Column_866 Column_867 Column_868 Column_869 Column_870 Column_871 Column_872 Column_873 Column_874 Column_875 Column_876 Column_877 Column_878 Column_879 Column_880 Column_881 Column_882 Column_883 Column_884 Column_885 Column_886 Column_887 Column_888 Column_889 Column_890 Column_891 Column_892 Column_893 Column_894 Column_895 Column_896 Column_897 Column_898 Column_899 Column_900 Column_901 Column_902 Column_903 Column_904 Column_905 Column_906 Column_907 Column_908 Column_909 Column_910 Column_911 Column_912 Column_913 Column_914 Column_915 Column_916 Column_917 Column_918 Column_919 Column_920 Column_921 Column_922 Column_923 Column_924 Column_925 Column_926 Column_927 Column_928 Column_929 Column_930 Column_931 Column_932 Column_933 Column_934 Column_935 Column_936 Column_937 Column_938 Column_939 Column_940 Column_941 Column_942 Column_943 Column_944 Column_945 Column_946 Column_947 Column_948 Column_949 Column_950 Column_951 Column_952 Column_953 Column_954 Column_955 Column_956 Column_957 Column_958 Column_959 Column_960 Column_961 Column_962 Column_963 Column_964 Column_965 Column_966 Column_967 Column_968 Column_969 Column_970 Column_971 Column_972 Column_973 Column_974 Column_975 Column_976 Column_977 Column_978 Column_979 Column_980 Column_981 Column_982 Column_983 Column_984 Column_985 Column_986 Column_987 Column_988 Column_989 Column_990 Column_991 Column_992 Column_993 Column_994 Column_995 Column_996 Column_997 Column_998 Column_999 Column_1000 Column_1001 Column_1002 Column_1003 Column_1004 Column_1005 Column_1006 Column_1007 Column_1008 Column_1009 Column_1010 Column_1011 Column_1012 Column_1013 Column_1014 Column_1015 Column_1016 Column_1017 Column_1018 Column_1019 Column_1020 Column_1021 Column_1022 Column_1023 Column_1024 Column_1025 Column_1026 Column_1027 Column_1028 Column_1029 Column_1030 Column_1031 Column_1032 Column_1033 Column_1034 Column_1035 Column_1036 Column_1037 Column_1038 Column_1039 Column_1040 Column_1041 Column_1042 Column_1043 Column_1044 Column_1045 Column_1046 Column_1047 Column_1048 Column_1049 Column_1050 Column_1051 Column_1052 Column_1053 Column_1054 Column_1055 Column_1056 Column_1057 Column_1058 Column_1059 Column_1060 Column_1061 Column_1062 Column_1063 Column_1064 Column_1065 Column_1066 Column_1067 Column_1068 Column_1069 Column_1070 Column_1071 Column_1072 Column_1073 Column_1074 Column_1075 Column_1076 Column_1077 Column_1078 Column_1079 Column_1080 Column_1081 Column_1082 Column_1083 Column_1084 Column_1085 Column_1086 Column_1087 Column_1088 Column_1089 Column_1090 Column_1091 Column_1092 Column_1093 Column_1094 Column_1095 Column_1096 Column_1097 Column_1098 Column_1099 Column_1100 Column_1101 Column_1102 Column_1103 Column_1104 Column_1105 Column_1106 Column_1107 Column_1108 Column_1109 Column_1110 Column_1111 Column_1112 Column_1113 Column_1114 Column_1115 Column_1116 Column_1117 Column_1118 Column_1119 Column_1120 Column_1121 Column_1122 Column_1123 Column_1124 Column_1125 Column_1126 Column_1127 Column_1128 Column_1129 Column_1130 Column_1131 Column_1132 Column_1133 Column_1134 Column_1135 Column_1136 Column_1137 Column_1138 Column_1139 Column_1140 Column_1141 Column_1142 Column_1143 Column_1144 Column_1145 Column_1146 Column_1147 Column_1148 Column_1149 Column_1150 Column_1151 Column_1152 Column_1153 Column_1154 Column_1155 Column_1156 Column_1157 Column_1158 Column_1159 Column_1160 Column_1161 Column_1162 Column_1163 Column_1164 Column_1165 Column_1166 Column_1167 Column_1168 Column_1169 Column_1170 Column_1171 Column_1172 Column_1173 Column_1174 Column_1175 Column_1176 Column_1177 Column_1178 Column_1179 Column_1180 Column_1181 Column_1182 Column_1183 Column_1184 Column_1185 Column_1186 Column_1187 Column_1188 Column_1189 Column_1190 Column_1191 Column_1192 Column_1193 Column_1194 Column_1195 Column_1196 Column_1197 Column_1198 Column_1199 Column_1200 Column_1201 Column_1202 Column_1203 Column_1204 Column_1205 Column_1206 Column_1207 Column_1208 Column_1209 Column_1210 Column_1211 Column_1212 Column_1213 Column_1214 Column_1215 Column_1216 Column_1217 Column_1218 Column_1219 Column_1220 Column_1221 Column_1222 Column_1223 Column_1224 Column_1225 Column_1226 Column_1227 Column_1228 Column_1229 Column_1230 Column_1231 Column_1232 Column_1233 Column_1234 Column_1235 Column_1236 Column_1237 Column_1238 Column_1239 Column_1240 Column_1241 Column_1242 Column_1243 Column_1244 Column_1245 Column_1246 Column_1247 Column_1248 Column_1249 Column_1250 Column_1251 Column_1252 Column_1253 Column_1254 Column_1255 Column_1256 Column_1257 Column_1258 Column_1259 Column_1260 Column_1261 Column_1262 Column_1263 Column_1264 Column_1265 Column_1266 Column_1267 Column_1268 Column_1269 Column_1270 Column_1271 Column_1272 Column_1273 Column_1274 Column_1275 Column_1276 Column_1277 Column_1278 Column_1279 Column_1280 Column_1281 Column_1282 Column_1283 Column_1284 Column_1285 Column_1286 Column_1287 Column_1288 Column_1289 Column_1290 Column_1291 Column_1292 Column_1293 Column_1294 Column_1295 Column_1296 Column_1297 Column_1298 Column_1299 Column_1300 Column_1301 Column_1302 Column_1303 Column_1304 Column_1305 Column_1306 Column_1307 Column_1308 Column_1309 Column_1310 Column_1311 Column_1312 Column_1313 Column_1314 Column_1315 Column_1316 Column_1317 Column_1318 Column_1319 Column_1320 Column_1321 Column_1322 Column_1323 Column_1324 Column_1325 Column_1326 Column_1327 Column_1328 Column_1329 Column_1330 Column_1331 Column_1332 Column_1333 Column_1334 Column_1335 Column_1336 Column_1337 Column_1338 Column_1339 Column_1340 Column_1341 Column_1342 Column_1343 Column_1344 Column_1345 Column_1346 Column_1347 Column_1348 Column_1349 Column_1350 Column_1351 Column_1352 Column_1353 Column_1354 Column_1355 Column_1356 Column_1357 Column_1358 Column_1359 Column_1360 Column_1361 Column_1362 Column_1363 Column_1364 Column_1365 Column_1366 Column_1367 Column_1368 Column_1369 Column_1370 Column_1371 Column_1372 Column_1373 Column_1374 Column_1375 Column_1376 Column_1377 Column_1378 Column_1379 Column_1380 Column_1381 Column_1382 Column_1383 Column_1384 Column_1385 Column_1386 Column_1387 Column_1388 Column_1389 Column_1390 Column_1391 Column_1392 Column_1393 Column_1394 Column_1395 Column_1396 Column_1397 Column_1398 Column_1399 Column_1400 Column_1401 Column_1402 Column_1403 Column_1404 Column_1405 Column_1406 Column_1407 Column_1408 Column_1409 Column_1410 Column_1411 Column_1412 Column_1413 Column_1414 Column_1415 Column_1416 Column_1417 Column_1418 Column_1419 Column_1420 Column_1421 Column_1422 Column_1423 Column_1424 Column_1425 Column_1426 Column_1427 Column_1428 Column_1429 Column_1430 Column_1431 Column_1432 Column_1433 Column_1434 Column_1435 Column_1436 Column_1437 Column_1438 Column_1439 Column_1440 Column_1441 Column_1442 Column_1443 Column_1444 Column_1445 Column_1446 Column_1447 Column_1448 Column_1449 Column_1450 Column_1451 Column_1452 Column_1453 Column_1454 Column_1455 Column_1456 Column_1457 Column_1458 Column_1459 Column_1460 Column_1461 Column_1462 Column_1463 Column_1464 Column_1465 Column_1466 Column_1467 Column_1468 Column_1469 Column_1470 Column_1471 Column_1472 Column_1473 Column_1474 Column_1475 Column_1476 Column_1477 Column_1478 Column_1479 Column_1480 Column_1481 Column_1482 Column_1483 Column_1484 Column_1485 Column_1486 Column_1487 Column_1488 Column_1489 Column_1490 Column_1491 Column_1492 Column_1493 Column_1494 Column_1495 Column_1496 Column_1497 Column_1498 Column_1499 Column_1500 Column_1501 Column_1502 Column_1503 Column_1504 Column_1505 Column_1506 Column_1507 Column_1508 Column_1509 Column_1510 Column_1511 Column_1512 Column_1513 Column_1514 Column_1515 Column_1516 Column_1517 Column_1518 Column_1519 Column_1520 Column_1521 Column_1522 Column_1523 Column_1524 Column_1525 Column_1526 Column_1527 Column_1528 Column_1529 Column_1530 Column_1531 Column_1532 Column_1533 Column_1534 Column_1535 Column_1536 Column_1537 Column_1538 Column_1539 Column_1540 Column_1541 Column_1542 Column_1543 Column_1544 Column_1545 Column_1546 Column_1547 Column_1548 Column_1549 Column_1550 Column_1551 Column_1552 Column_1553 Column_1554 Column_1555 Column_1556 Column_1557 Column_1558 Column_1559 Column_1560 Column_1561 Column_1562 Column_1563 Column_1564 Column_1565 Column_1566 Column_1567 Column_1568 Column_1569 Column_1570 Column_1571 Column_1572 Column_1573 Column_1574 Column_1575 Column_1576 Column_1577 Column_1578 Column_1579 Column_1580 Column_1581 Column_1582 Column_1583 Column_1584 Column_1585 Column_1586 Column_1587 Column_1588 Column_1589 Column_1590 Column_1591 Column_1592 Column_1593 Column_1594 Column_1595 Column_1596 Column_1597 Column_1598 Column_1599 Column_1600 Column_1601 Column_1602 Column_1603 Column_1604 Column_1605 Column_1606 Column_1607 Column_1608 Column_1609 Column_1610 Column_1611 Column_1612 Column_1613 Column_1614 Column_1615 Column_1616 Column_1617 Column_1618 Column_1619 Column_1620 Column_1621 Column_1622 Column_1623 Column_1624 Column_1625 Column_1626 Column_1627 Column_1628 Column_1629 Column_1630 Column_1631 Column_1632 Column_1633 Column_1634 Column_1635 Column_1636 Column_1637 Column_1638 Column_1639 Column_1640 Column_1641 Column_1642 Column_1643 Column_1644 Column_1645 Column_1646 Column_1647 Column_1648 Column_1649 Column_1650 Column_1651 Column_1652 Column_1653 Column_1654 Column_1655 Column_1656 Column_1657 Column_1658 Column_1659 Column_1660 Column_1661 Column_1662 Column_1663 Column_1664 Column_1665 Column_1666 Column_1667 Column_1668 Column_1669 Column_1670 Column_1671 Column_1672 Column_1673 Column_1674 Column_1675 Column_1676 Column_1677 Column_1678 Column_1679 Column_1680 Column_1681 Column_1682 Column_1683 Column_1684 Column_1685 Column_1686 Column_1687 Column_1688 Column_1689 Column_1690 Column_1691 Column_1692 Column_1693 Column_1694 Column_1695 Column_1696 Column_1697 Column_1698 Column_1699 Column_1700 Column_1701 Column_1702 Column_1703 Column_1704 Column_1705 Column_1706 Column_1707 Column_1708 Column_1709 Column_1710 Column_1711 Column_1712 Column_1713 Column_1714 Column_1715 Column_1716 Column_1717 Column_1718 Column_1719 Column_1720 Column_1721 Column_1722 Column_1723 Column_1724 Column_1725 Column_1726 Column_1727 Column_1728 Column_1729 Column_1730 Column_1731 Column_1732 Column_1733 Column_1734 Column_1735 Column_1736 Column_1737 Column_1738 Column_1739 Column_1740 Column_1741 Column_1742 Column_1743 Column_1744 Column_1745 Column_1746 Column_1747 Column_1748 Column_1749 Column_1750 Column_1751 Column_1752 Column_1753 Column_1754 Column_1755 Column_1756 Column_1757 Column_1758 Column_1759 Column_1760 Column_1761 Column_1762 Column_1763 Column_1764 Column_1765 Column_1766 Column_1767 Column_1768 Column_1769 Column_1770 Column_1771 Column_1772 Column_1773 Column_1774 Column_1775 Column_1776 Column_1777 Column_1778 Column_1779 Column_1780 Column_1781 Column_1782 Column_1783 Column_1784 Column_1785 Column_1786 Column_1787 Column_1788 Column_1789 Column_1790 Column_1791 Column_1792 Column_1793 Column_1794 Column_1795 Column_1796 Column_1797 Column_1798 Column_1799 Column_1800 Column_1801 Column_1802 Column_1803 Column_1804 Column_1805 Column_1806 Column_1807 Column_1808 Column_1809 Column_1810 Column_1811 Column_1812 Column_1813 Column_1814 Column_1815 Column_1816 Column_1817 Column_1818 Column_1819 Column_1820 Column_1821 Column_1822 Column_1823 Column_1824 Column_1825 Column_1826 Column_1827 Column_1828 Column_1829 Column_1830 Column_1831 Column_1832 Column_1833 Column_1834 Column_1835 Column_1836 Column_1837 Column_1838 Column_1839 Column_1840 Column_1841 Column_1842 Column_1843 Column_1844 Column_1845 Column_1846 Column_1847 Column_1848 Column_1849 Column_1850 Column_1851 Column_1852 Column_1853 Column_1854 Column_1855 Column_1856 Column_1857 Column_1858 Column_1859 Column_1860 Column_1861 Column_1862 Column_1863 Column_1864 Column_1865 Column_1866 Column_1867 Column_1868 Column_1869 Column_1870 Column_1871 Column_1872 Column_1873 Column_1874 Column_1875 Column_1876 Column_1877 Column_1878 Column_1879 Column_1880 Column_1881 Column_1882 Column_1883 Column_1884 Column_1885 Column_1886 Column_1887 Column_1888
feature_infos=[0:1] [0:1] [0:1] [0:1] [0:1] [0:1] [0:1] [0:1] [0:1] [0:1] [0:1] [0:1] [0:1] [0:1] [0:1] [0:1] [0:1] [0:1] [0:1] [0:1] [0:1] [0:1] [0:1] [0:1] [0:1] [0:1] [0:1] [0:1] [0:1] [0:1] [0:1] [0:1] [0:1] [0:1] [0:1] [0:1] [0:1] [0:1] [0:1] [0:1] [0:1] [0:1] [0:1] [0:1] [0:1] [0:1] [0:1] [0:1] [0:1] [0:1] [0:1] [0:1] [0:1] [0:1] [0:1] [0:1] [0:1] [0:1] [0:1] [0:1] [0:1] [0:1] [0:1] [0:1] [0:1] [0:1] [0:1] [0:1] [0:1] [0:1] [0:1] [0:1] [0:1] [0:1] [0:1] [0:1] [0:1] [0:1] [0:1] [0:1] [0:1] [0:1] [0:1] [0:1] [0:1] [0:1] [0:1] [0:1] [0:1] [0:1] [0:1] [0:1] [0:1] [0:1] [0:1] [0:1] [0:1] [0:1] [0:1] [0:1] [0:1] [0:1] [0:1] [0:1] [0:1] [0:1] [0:1] [0:1] [0:1] [0:1] [0:1] [0:1] [0:1] [0:1] [0:1] [0:1] [0:1] [0:1] [0:1] [0:1] [0:1] [0:1] [0:1] [0:1] [0:1] [0:1] [0:1] [0:1] [0:1] [0:1] [0:1] [0:1] [0:1] [0:1] [0:1] [0:1] [0:1] [0:1] [0:1] [0:1] [0:1] [0:1] [0:1] [0:1] [0:1] [0:1] [0:1] [0:1] [0:1] [0:1] [0:1] [0:1] [0:1] [0:1] [0:1] [0:1] [0:1] [0:1] [0:1] [0:1] [0:1] [0:1] [0:1] [0:1] [0:1] [0:1] [0:1] [0:1] [0:1] [0:1] [0:1] [0:1] [0:1] [0:1] [0:1] [0:1] [0:1] [0:1] [0:1] [0:1] [0:1] [0:1] [0:1] [0:1] [0:1] [0:1] [0:1] [0:1] [0:1] [0:1] [0:1] [0:1] [0:1] [0:1] [0:1] [0:1] [0:1] [0:1] [0:1] [0:1] [0:1] [0:1] [0:1] [0:1] [0:1] [0:1] [0:1] [0:1] [0:1] [0:1] [0:1] [0:1] [0:1] [0:1] [0:1] [0:1] [0:1] [0:1] [0:1] [0:1] [0:1] [0:1] [0:1] [0:1] [0:1] [0:1] [0:1] [0:1] [0:1] [0:1] [0:1] [0:1] [0:1] [0:1] [0:1] [0:1] [0:1] [0:1] [0:1] [0:1] [0:1] [0:1] [0:1] [0:1] [0:1] [0:1] [0:1] [0:1] [0:1] [0:1] [0:1] [0:1] [0:1] [0:1] [0:1] [0:1] [0:1] [0:1] [0:1] [0:1] [0:1] [0:1] [0:1] [0:1] [0:1] [0:1] [0:1] [0:1] [0:1] [0:1] [0:1] [0:1] [0:1] [0:1] [0:1] [0:1] [0:1] [0:1] [0:1] [0:1] [0:1] [0:1] [0:1] [0:1] [0:1] [0:1] [0:1] [0:1] [0:1] [0:1] [0:1] [0:1] [0:1] [0:1] [0:1] [0:1] [0:1] [0:1] [0:1] [0:1] [0:1] [0:1] [0:1] [0:1] [0:1] [0:1] [0:1] [0:1] [0:1] [0:1] [0:1] [0:1] [0:1] [0:1] [0:1] [0:1] [0:1] [0:1] [0:1] [0:1] [0:1] [0:1] [0:1] [0:1] [0:1] [0:1] [0:1] [0:1] [0:1] [0:1] [0:1] [0:1] [0:1] [0:1] [0:1] [0:1] [0:1] [0:1] [0:1] [0:1] [0:1] [0:1] [0:1] [0:1] [0:1] [0:1] [0:1] [0:1] [0:1] [0:1] [0:1] [0:1] [0:1] [0:1] [0:1] [0:1] [0:1] [0:1] [0:1] [0:1] [0:1] [0:1] [0:1] [0:1] [0:1] [0:1] [0:1] [0:1] [0:1] [0:1] [0:1] [0:1] [0:1] [0:1] [0:1] [0:1] [0:1] [0:1] [0:1] [0:1] [0:1] [0:1] [0:1] [0:1] [0:1] [0:1] [0:1] [0:1] [0:1] [0:1] [0:1] [0:1] [0:1] [0:1] [0:1] [0:1] [0:1] [0:1] [0:1] [0:1] [0:1] [0:1] [0:1] none [0:1] [0:1] [0:1] none [0:1] [0:1] [0:1] [0:1] none [0:1] [0:1] [0:1] [0:1] [0:1] [0:1] none none [0:1] [0:1] [0:1] [0:1] none [0:1] none [0:1] [0:1] [0:1] none [0:1] none [0:1] none [0:1] [0:1] none none none [0:1] [0:1] none none [0:1] [0:1] none none [0:1] [0:1] none none [0:1] none [0:1] none [0:1] none none none none [0:1] none none none [0:1] none none none none [0:1] none none none none none none none none none none none none none none none none none none none none none none none none none none none none none none none none none none none none none none none none none none none none none none none none none none none none none none none none none none none none none none none none none none none none none none none none none none none none none none none none none none none none none none none none none none none none none none none none none none none none none none none none none none none none none none none none none none none none none none none none none none none none none none none none none none none none none none none none none none none none none none none none none none none none none none none none none none none none none none none none none none none none none none none none none none none none none none none none none none none none none none none none none none none none none none none none none none none none none none none none none none none none none none none none none none none none none none none none none none none none none none none none none none none none none none none none none none none none none none none none none none none none none none none none none none none none none none none none none none none none none none none none none none none none none none none none none none none none none none none none none none none none none none none none none none none none none none none none none none none none none none none none none none none none none none none none none none none none none none none none none none none none none none none none none none none none none none none none none none none none none none none none none none none none none none none none none none none none none none none none none none none none none none none none none none none none none none none none none none none none none none none none none none none none none none none none [0:1] [0:1] [0:1] [0:1] [0:1] [0:1] [0:1] none [0:1] [0:1] [0:1] [0:1] [0:1] [0:1] [0:1] [0:1] [0:1] [0:1] [0:1] [0:1] [0:1] [0:1] [0:1] none [0:1] [0:1] [0:1] [0:1] [0:1] none [0:1] [0:1] [0:1] [0:1] [0:1] [0:1] [0:1] [0:1] [0:1] [0:1] [0:1] [0:1] [0:1] [0:1] none none [0:1] [0:1] [0:1] [0:1] [0:1] [0:1] [0:1] [0:1] [0:1] [0:1] none [0:1] [0:1] [0:1] [0:1] [0:1] [0:1] [0:1] [0:1] [0:1] [0:1] none [0:1] none [0:1] none [0:1] [0:1] [0:1] [0:1] [0:1] [0:1] [0:1] none [0:1] [0:1] [0:1] [0:1] none [0:1] none [0:1] none [0:1] [0:1] [0:1] [0:1] [0:1] [0:1] [0:1] [0:1] [0:1] [0:1] [0:1] [0:1] none [0:1] [0:1] [0:1] [0:1] [0:1] [0:1] none [0:1] [0:1] [0:1] none [0:1] none [0:1] [0:1] [0:1] [0:1] [0:1] [0:1] [0:1] [0:1] [0:1] [0:1] [0:1] [0:1] [0:1] [0:1] [0:1] [0:1] [0:1] [0:1] [0:1] [0:1] none [0:1] [0:1] [0:1] [0:1] [0:1] [0:1] [0:1] [0:1] [0:1] [0:1] [0:1] [0:1] [0:1] none [0:1] [0:1] [0:1] [0:1] none [0:1] [0:1] [0:1] [0:1] [0:1] [0:1] [0:1] none [0:1] [0:1] [0:1] [0:1] [0:1] none [0:1] [0:1] [0:1] [0:1] [0:1] [0:1] none [0:1] none [0:1] [0:1] [0:1] [0:1] [0:1] [0:1] [0:1] [0:1] [0:1] [0:1] none [0:1] [0:1] [0:1] [0:1] [0:1] [0:1] [0:1] [0:1] none [0:1] [0:1] [0:1] [0:1] none [0:1] [0:1] [0:1] none [0:1] [0:1] [0:1] [0:1] [0:1] [0:1] [0:1] none [0:1] [0:1] [0:1] none [0:1] [0:1] [0:1] [0:1] [0:1] [0:1] [0:1] [0:1] [0:1] [0:1] [0:1] [0:1] none [0:1] none [0:1] [0:1] [0:1] [0:1] [0:1] [0:1] [0:1] [0:1] [0:1] [0:1] [0:1] [0:1] [0:1] [0:1] none [0:1] [0:1] [0:1] [0:1] [0:1] [0:1] [0:1] [0:1] [0:1] none [0:1] [0:1] [0:1] [0:1] [0:1] [0:1] [0:1] [0:1] [0:1] [0:1] [0:1] [0:1] [0:1] [0:1] [0:1] [0:1] [0:1] [0:1] [0:1] none [0:1] [0:1] none [0:1] [0:1] [0:1] [0:1] [0:1] none none [0:1] [0:1] [0:1] [0:1] none [0:1] [0:1] [0:1] [0:1] [0:1] [0:1] [0:1] [0:1] [0:1] [0:1] [0:1] [0:1] [0:1] [0:1] [0:1] [0:1] [0:1] [0:1] [0:1] [0:1] [0:1] [0:1] [0:1] [0:1] [0:1] [0:1] [0:1] [0:1] [0:1] [0:1] [0:1] [0:1] [0:1] [0:1] [0:1] [0:1] [0:1] [0:1] [0:1] [0:1] [0:1] [0:1] [0:1] [0:1] [0:1] [0:1] [0:1] [0:1] [0:1] [0:1] [0:1] [0:1] [0:1] [0:1] none [0:1] [0:1] [0:1] [0:1] [0:1] [0:1] [0:1] [0:1] [0:1] [0:1] [0:1] [0:1] [0:1] [0:1] [0:1] [0:1] [0:1] [0:1] [0:1] [0:1] [0:1] [0:1] [0:1] [0:1] [0:1] [0:1] [0:1] [0:1] [0:1] [0:1] [0:1] [0:1] [0:1] [0:1] none [0:1] [0:1] [0:1] [0:1] [0:1] none [0:1] [0:1] [0:1] [0:1] [0:1] [0:1] [0:1] [0:1] [0:1] [0:1] [0:1] [0:1] [0:1] none [0:1] none none [0:1] [0:1] [0:1] [0:1] [0:1] [0:1] [0:1] [0:1] [0:1] [0:1] [0:1] [0:1] [0:1] [0:1] [0:1] [0:1] none [0:1] [0:1] [0:1] [0:1] [0:1] [0:1] [0:1] [0:1] [0:1] [0:1] [0:1] none [0:1] [0:1] [0:1] [0:1] none [0:1] [0:1] none [0:1] [0:1] [0:1] [0:1] [0:1] [0:1] [0:1] none [0:1] [0:1] [0:1] [0:1] [0:1] [0:1] [0:1] [0:1] [0:1] [0:1] [0:1] none [0:1] [0:1] [0:1] [0:1] [0:1] [0:1] none [0:1] none [0:1] [0:1] [0:1] none [0:1] [0:1] none [0:1] [0:1] [0:1] [0:1] [0:1] [0:1] [0:1] [0:1] [0:1] [0:1] [0:1] [0:1] [0:1] [0:1] [0:1] [0:1] [0:1] [0:1] [0:1] [0:1] none [0:1] [0:1] [0:1] [0:1] [0:1] [0:1] [0:1] [0:1] [0:1] [0:1] [0:1] [0:1] [0:1] none none [0:1] [0:1] [0:1] none [0:1] [0:1] [0:1] none [0:1] [0:1] [0:1] [0:1] [0:1] [0:1] [0:1] [0:1] [0:1] [0:1] [0:1] [0:1] [0:1] none [0:1] [0:1] [0:1] [0:1] [0:1] [0:1] [0:1] none [0:1] none [0:1] [0:1] [0:1] [0:1] [0:1] [0:1] [0:1] [0:1] none [0:1] [0:1] [0:1] none none [0:1] [0:1] [0:1] [0:1] [0:1] none [0:1] [0:1] [0:1] [0:1] [0:1] [0:1] [0:1] [0:1] [0:1] [0:1] [0:1] [0:1] [0:1] [0:1] none none [0:1] [0:1] [0:1] [0:1] [0:1] [0:1] [0:1] [0:1] [0:1] [0:1] [0:1] [0:1] [0:1] none [0:1] [0:1] [0:1] [0:1] [0:1] [0:1] [0:1] [0:1] [0:1] [0:1] [0:1] [0:1] [0:1] [0:1] [0:1] [0:1] [0:1] [0:1] [0:1] [0:1] [0:1] [0:1] [0:1] [0:1] [0:1] [0:1] [0:1] [0:1] [0:1] [0:1] none [0:1] [0:1] [0:1] [0:1] [0:1] [0:1] none none none [0:1] [0:1] [0:1] [0:1] [0:1] [0:1] [0:1] [0:1] none [0:1] [0:1] [0:1] [0:1] [0:1] [0:1] [0:1] [0:1] [0:1] [0:1] [0:1] [0:1] [0:1] [0:1] [0:1] [0:1] none [0:1] [0:1] [0:1] [0:1] [0:1] none [0:1] none [0:1] [0:1] [0:1] [0:1] [0:1] [0:1] [0:1] none [0:1] [0:1] [0:1] [0:1] [0:1] [0:1] none [0:1] [0:1] none [0:1] [0:1] [0:1] [0:1] [0:1] [0:1] [0:1] [0:1] [0:1] [0:1] [0:1] [0:1] [0:1] [0:1] [0:1] [0:1] [0:1] [0:1] [0:1] [0:1] [0:1] [0:1] [0:1] none [0:1] [0:1] [0:1] [0:1] [0:1] [0:1] [0:1] [0:1] [0:1] [0:1] [0:1] [0:1] [0:1] [0:1] [0:1] [0:1] [0:1] [0:1] [0:1] [0:1] none [0:1] [0:1] [0:1] [0:1] [0:1] [0:1] [0:1] [0:1] [0:1] [0:1] [0:1] [0:1] none [0:1] none [0:1] [0:1] [0:1] [0:1] [0:1] [0:1] [0:1] [0:1] [0:1] [0:1] [0:1] [0:1] [0:1] [0:1] [0:1] [0:1] [0:1] [0:1] [0:1] [0:1] [0:1] none [0:1] [0:1] none [0:1] [0:1] [0:1] [0:1] none [0:1] [0:1] [0:1] [0:1] [0:1] [0:1] [0:1] [0:1] [0:1] [0:1] [0:1] [0:1] [0:1] [0:1] none [0:1] [0:1] [0:1] [0:1] [0:1] [0:1] [0:1] [0:1] [0:1] [0:1] [0:1] [0:1] [0:1] [0:1] [0:1] [0:1] [0:1] [0:1] [0:1] [0:1] [0:1] none [0:1] [0:1] none [0:1] [0:1] none [0:1] [0:1] [0:1] [0:1] none [0:1] [0:1] [0:1] [0:1] [0:1] [0:1] [0:1] [0:1] [0:1] [0:1] [0:1] [0:1] [0:1] [0:1] [0:1] [0:1] [0:1] [0:1] none [0:1] [0:1] none [0:1] [0:1] [0:1] [0:1] [0:1] [0:1] [0:1] [0:1] [0:1] none [0:1] [0:1] [0:1] [0:1] [0:1] [0:1] [0:1] none [0:1] none [0:1] [0:1] [0:1] [0:1] [0:1] [0:1] [0:1] [0:1] none none [0:1] [0:1] [0:1] [0:1] [0:1] [0:1] [0:1] [0:1] [0:1] [0:1] [0:1] [0:1] [0:1] [0:1] [0:1] [0:1] [0:1] [0:1] [0:1] [0:1] [0:1] [0:1] [0:1] [0:1] [0:1] [0:1] [0:1] none [0:1] [0:1] [0:1] [0:1] [0:1] [0:1] [0:1] [0:1] [0:1] [0:1] [0:1] [0:1] [0:1] [0:1] [0:1] [0:1] none [0:1] none [0:1] [0:1] [0:1] none [0:1] [0:1] [0:1] [0:1] [0:1] [0:1] none [0:1] none [0:1] [0:1] [0:1] none none [0:1] [0:1] [0:1] [0:1] [0:1] [0:1] [0:1] none [0:1] [0:1] [0:1] [0:1] [0:1] [0:1] [0:1] [0:1] [0:1] [0:1] [0:1] [0:1] [0:1] [0:1] [0:1] [0:1] [0:1] [0:1] none [0:1] [0:1] [0:1] [0:1] [0:1] [0:1] [0:1] [0:1] none [0:1] [0:1] [0:1] [0:1] [0:1] [0:1] [0:1] [0:1] [0:1] [0:1] [0:1] none [0:1] [0:1] [0:1] [0:1] [0:1] [0:1] [0:1] [0:1] [0:1] [0:1] [0:1] [0:1] [0:1] [0:1] [0:1] [0:1] [0:1] [0:1] [0:1] none none [0:1] [0:1] [0:1] none [0:1] [0:1] [0:1] [0:1] none [0:1] [0:1]
tree_sizes=11227 9642 10082 11285 11111 9803 10876 10551 9623 11352 11362 10903 9841 9528 11245 9652 10374 8873 7681 5719 7126 7477 10287 7677 5512 8677 4956 4973 5606 7260 3108 4531 3877 2896 2466 4968 10299 3324 3568 6940 7807 4859 4202 2894 5301 5090 3011 5289 4653 8462 4430 5190 11373 9439 11088 3024 5535 3460 8588 5196 7827 4870 4320 4456 10449 5000 8509 10099 8559 4020 4988 5209 5116 6640 5873 7754 7803 5011 9361 7622 4795 11450 11406 9147 6529 5135 4800 7296 4226 4567 5011 4573 5689 3928 5246 11447 11451 10798 6342 8199 5247 7349 9870 4262 10333 4820 7325 8628 5792 8850 5546 8755 8329 4704 11499 5703 6705 10895 5798 6930 6866 8724 9181 5254 7051 4720 11518 10685 5819 5132 5697 9768 6359 5910 6249 8177 11529 7889 5482 7021 6904 11568 9765 10891 7239 5821 5282 8338 6394 7366 7354 7250 7241 9666 9422 8822 9876 9010 5831 7921 6603 7465 4609 7243 7127 7257 7929 9063 4598 6358 8770 6751 7121 11564 5514 10904 5383 7992 8707 6162 4763 6283 10148 4528 7505 6511 5838 7278 4196 6299 3517 8716 6730 5074 9023 8972 9920 10159 5533 6410 5977 6504 10095 8869 7062 9317 4749 5872 9931 7291 8304 7936 8185 7852 5560 8015 11591 4856 5649 6450 7986 8762 8608 6749 7885 5536 8725 10301 11609 8197 5114 4446 9325 8081 8744 5997 9424 8355 10697 11567 9991 8660 11621 6764

Tree=0
num_leaves=103
num_cat=0
split_feature=29 12 864 241 1826 206 1008 1170 1841 1042 176 1419 1674 78 70 51 1164 93 65 1641 42 148 139 1009 64 993 172 73 122 984 1800 140 1604 1827 917 36 1703 58 138 31 26 91 42 181 127 1328 51 1226 70 139 102 108 1805 18 1148 1846 71 131 967 35 1298 1079 324 1075 1764 42 945 1442 945 1361 993 64 92 986 138 149 197 75 45 1882 67 55 1714 1672 142 864 139 147 23 1884 139 864 918 864 103 1414 59 134 35 993 21 51
split_gain=1577.29 615.196 151.178 100.4 87.2155 72.8181 72.6362 51.8644 42.847 38.1099 35.4782 53.5958 30.9326 25.0273 30.271 27.6723 43.985 22.8612 55.0593 25.0308 21.1301 17.6719 17.3038 36.4071 16.6657 15.2791 43.8404 14.5573 13.5583 13.3087 16.5536 12.471 12.3794 12.2792 11.3109 10.9127 10.0626 8.53041 8.64752 8.51957 7.89526 7.69386 8.24733 7.63159 7.24185 16.1157 6.98776 6.94956 6.73954 9.04604 6.20668 5.84344 5.57645 5.51934 5.23941 5.42499 5.03501 4.93719 4.93387 4.93336 4.56572 4.23522 4.19633 3.6703 3.88555 2.96871 2.83227 2.67999 2.56675 2.48019 2.21071 2.1063 2.07358 1.28585 1.26241 4.40837 1.58098 1.19794 1.5809 2.14283 1.12434 1.11993 2.68914 1.08317 1.06187 1.02822 0.958549 0.949788 0.822596 1.00066 1.45619 1.83559 0.750188 0.659688 0.432112 0.403259 0.381016 0.340003 0.338941 0.371315 0.669237 0.238756
threshold=1.0000000180025095e-35 1.0000000180025095e-35 1.0000000180025095e-35 1.0000000180025095e-35 1.0000000180025095e-35 1.0000000180025095e-35 1.0000000180025095e-35 1.0000000180025095e-35 1.0000000180025095e-35 1.0000000180025095e-35 1.0000000180025095e-35 1.0000000180025095e-35 1.0000000180025095e-35 1.0000000180025095e-35 1.0000000180025095e-35 1.0000000180025095e-35 1.0000000180025095e-35 1.0000000180025095e-35 1.0000000180025095e-35 1.0000000180025095e-35 1.0000000180025095e-35 1.0000000180025095e-35 1.0000000180025095e-35 1.0000000180025095e-35 1.0000000180025095e-35 1.0000000180025095e-35 1.0000000180025095e-35 1.0000000180025095e-35 1.0000000180025095e-35 1.0000000180025095e-35 1.0000000180025095e-35 1.0000000180025095e-35 1.0000000180025095e-35 1.0000000180025095e-35 1.0000000180025095e-35 1.0000000180025095e-35 1.0000000180025095e-35 1.0000000180025095e-35 1.0000000180025095e-35 1.0000000180025095e-35 1.0000000180025095e-35 1.0000000180025095e-35 1.0000000180025095e-35 1.0000000180025095e-35 1.0000000180025095e-35 1.0000000180025095e-35 1.0000000180025095e-35 1.0000000180025095e-35 1.0000000180025095e-35 1.0000000180025095e-35 1.0000000180025095e-35 1.0000000180025095e-35 1.0000000180025095e-35 1.0000000180025095e-35 1.0000000180025095e-35 1.0000000180025095e-35 1.0000000180025095e-35 1.0000000180025095e-35 1.0000000180025095e-35 1.0000000180025095e-35 1.0000000180025095e-35 1.0000000180025095e-35 1.0000000180025095e-35 1.0000000180025095e-35 1.0000000180025095e-35 1.0000000180025095e-35 1.0000000180025095e-35 1.0000000180025095e-35 1.0000000180025095e-35 1.0000000180025095e-35 1.0000000180025095e-35 1.0000000180025095e-35 1.0000000180025095e-35 1.0000000180025095e-35 1.0000000180025095e-35 1.0000000180025095e-35 1.0000000180025095e-35 1.0000000180025095e-35 1.0000000180025095e-35 1.0000000180025095e-35 1.0000000180025095e-35 1.0000000180025095e-35 1.0000000180025095e-35 1.0000000180025095e-35 1.0000000180025095e-35 1.0000000180025095e-35 1.0000000180025095e-35 1.0000000180025095e-35 1.0000000180025095e-35 1.0000000180025095e-35 1.0000000180025095e-35 1.0000000180025095e-35 1.0000000180025095e-35 1.0000000180025095e-35 1.0000000180025095e-35 1.0000000180025095e-35 1.0000000180025095e-35 1.0000000180025095e-35 1.0000000180025095e-35 1.0000000180025095e-35 1.0000000180025095e-35 1.0000000180025095e-35
decision_type=2 2 2 2 2 2 2 2 2 2 2 2 2 2 2 2 2 2 2 2 2 2 2 2 2 2 2 2 2 2 2 2 2 2 2 2 2 2 2 2 2 2 2 2 2 2 2 2 2 2 2 2 2 2 2 2 2 2 2 2 2 2 2 2 2 2 2 2 2 2 2 2 2 2 2 2 2 2 2 2 2 2 2 2 2 2 2 2 2 2 2 2 2 2 2 2 2 2 2 2 2 2
left_child=7 44 3 4 5 10 66 13 40 24 11 17 22 34 60 71 29 18 19 -3 58 -20 27 32 54 35 59 46 -25 30 83 52 -24 73 36 37 62 41 -39 92 69 42 -6 51 81 93 -12 57 49 -28 97 -22 -19 -36 55 56 -7 -41 -13 84 67 -14 74 64 -18 72 -4 77 -29 -9 -64 80 -62 -32 88 76 -76 78 86 85 -16 95 -83 -17 -27 -80 94 -50 98 90 91 -90 -38 -46 -15 -2 -91 -37 -1 100 -100 -26
right_child=1 2 6 -5 25 9 -8 8 -10 -11 12 20 61 14 15 16 63 31 21 -21 43 -23 23 28 101 26 48 68 -30 -31 33 -33 -34 -35 53 50 39 38 -40 47 -42 -43 -44 -45 45 -47 -48 -49 87 -51 -52 -53 -54 -55 -56 -57 -58 -59 -60 -61 65 -63 70 -65 -66 -67 -68 -69 -70 -71 -72 -73 -74 -75 75 -77 -78 -79 79 -81 -82 82 -84 -85 -86 -87 -88 -89 89 96 -92 -93 -94 -95 -96 -97 -98 -99 99 -101 -102 -103
leaf_value=0.29020428629961098 0.28997280109319579 -0.093828597828977123 0.19687317297168497 0.29353225097957159 0.13900879993670137 -0.016402165589251942 -0.15633054231925553 0.17255146685744144 -0.16021777866528786 0.26870661035270887 -0.13416635483184994 0.015360236188901394 0.12710832675193362 0.29385252633773495 0.29365277132937911 0.14494837308859473 0.24948910888786704 -0.1574896387366255 0.16211021598868389 0.041383569224019548 0.024031172948957881 -0.046833808441136597 -0.13658188995041201 0.16198293806772443 0.14494837308859476 -0.021664945782439528 0.018053210175798834 -0.081342147559795241 -0.073521562023371928 -0.13048180672764353 -0.12803589482876043 0.032341199617247761 0.017952581915060294 0.093535148375175931 0.21798698375173031 -0.11582186290339189 0.28394932344077395 0.21600611612651416 0.0086736226154980542 0.16576113572914689 0.29284166001244655 -0.13985297371679475 -0.041343073912937352 0.22825014408446936 0.2932334302082516 0.032341199617247761 -0.17905976372830423 0.26988383372351837 0.2267437061833254 0.24464479929764971 0.0078086977406813668 0.1835462610136202 -0.027734175923786554 0.062846952756315216 0.062011483746888564 0.017952581915060307 -0.1468626076766863 0.02101908102846857 -0.14220264117274997 -0.11322929702343659 0.1327060282680145 -0.013185457184267217 0.17287120569438805 0.29346763266676662 0.1179690216143244 0.27198631139554846 0.28348697252198424 0.17830906152434764 0.017952581915060301 0.052395912790427497 0.27098258021268135 0.18833056793985514 0.22726442061315077 -0.043728530463183611 0.28635124920831345 0.16828021928153922 0.21899873703127667 0.29384853080267725 0.23662611711924136 0.29300343231632708 0.23488828445991536 0.17830906152434761 0.29316729247091999 0.22061368848424698 0.052395912790427497 0.1727568057515122 0.22726442061315077 0.29304910097395853 0.26867591011105252 0.29382246328152961 0.28106848972806631 0.16741663207593183 0.22726442061315077 0.2375113280169471 0.25285970448050904 0.25285970448050904 0.26277014256323766 -0.16509633422254266 0.23304226924151059 0.29329158217172197 0.29270702092445527 0.10962798237496957
leaf_weight=122.8910191655159 58.947724640369415 221.05396740138531 7.4933548271656063 11.240032240748404 6.2444623559713373 6.9937978386878976 7.4933548271656027 4.9955698847770673 8.4924688041210175 9.741361275315283 190.08143411576748 6.494240850210188 7.2435763329267484 21.730728998780254 13.737817183136944 6.4942408502101898 8.2426903098821622 71.936206340789795 19.232944056391716 21.980507493019104 8.4924688041210157 8.4924688041210192 57.199275180697441 10.990253746509554 6.494240850210188 6.4942408502101916 5.2453483790159225 6.7440193444490406 5.2453483790159217 6.2444623559713355 5.9946838617324829 5.994683861732482 8.7422472983598691 10.240918263792992 7.9929118156433088 4.9955698847770709 12.488924711942675 6.2444623559713381 5.495126873254776 8.4924688041210192 5.4951268732547769 4.9955698847770682 8.9920257925987244 9.2418042868375778 7.7431333214044589 5.994683861732482 70.187756881117821 5.2453483790159217 7.2435763329267502 4.9955698847770691 6.7440193444490424 5.4951268732547769 5.2453483790159217 5.7449053674936295 6.2444623559713355 8.7422472983598727 11.489810734987259 5.7449053674936286 5.2453483790159225 7.9929118156433097 8.9920257925987261 5.495126873254776 8.9920257925987226 10.240918263792992 5.4951268732547769 5.7449053674936286 23.229399964213371 5.2453483790159217 8.7422472983598709 4.9955698847770691 5.4951268732547751 5.7449053674936286 5.4951268732547751 4.9955698847770691 31.721868768334389 6.7440193444490424 6.4942408502101889 21.480950504541397 8.4924688041210192 6.2444623559713355 8.242690309882164 5.2453483790159225 7.2435763329267484 4.9955698847770673 4.9955698847770691 6.9937978386878958 5.4951268732547751 6.4942408502101898 4.9955698847770691 19.982279539108276 9.7413612753152847 5.7449053674936295 5.4951268732547751 6.4942408502101898 5.994683861732482 5.994683861732482 11.739589229226114 5.2453483790159225 7.9929118156433105 8.242690309882164 4.9955698847770691 5.2453483790159225
leaf_count=492 236 885 30 45 25 28 30 20 34 39 761 26 29 87 55 26 33 288 77 88 34 34 229 44 26 26 21 27 21 25 24 24 35 41 32 20 50 25 22 34 22 20 36 37 31 24 281 21 29 20 27 22 21 23 25 35 46 23 21 32 36 22 36 41 22 23 93 21 35 20 22 23 22 20 127 27 26 86 34 25 33 21 29 20 20 28 22 26 20 80 39 23 22 26 24 24 47 21 32 33 20 21
internal_value=0.0595489 -0.0255882 -0.0550841 -0.0648844 -0.0693344 -0.0819539 0.180286 0.230955 0.0573916 0.0523544 -0.0916697 -0.0661551 -0.118426 0.239286 0.205088 0.154252 0.109907 -0.0802516 -0.063204 -0.0816037 0.0765194 0.0980606 -0.12501 -0.0762388 0.0056224 0.0418981 0.0940226 -0.139527 0.0857851 0.0306697 0.061579 -0.135678 -0.116124 -0.00161763 0.260723 -0.004368 0.265746 0.0372571 0.119082 0.207006 0.176932 -0.0102406 0.0325832 0.143253 0.263203 0.198433 -0.146301 0.151419 0.203313 0.128817 -0.0825323 0.0868374 -0.148711 0.153268 -0.0377982 -0.0606664 -0.0977152 0.107401 -0.0553963 -0.0405037 0.250273 0.0665589 0.274331 0.238535 0.197138 0.198433 0.262526 0.263054 -0.0254895 0.112642 0.210469 0.254754 0.168863 -0.0901244 0.278145 0.259122 0.275048 0.268818 0.258903 0.232786 0.271902 0.280063 0.245353 0.178201 0.0104264 0.208074 0.275805 0.258557 0.282468 0.268611 0.246715 0.214994 0.266957 0.268271 0.285222 0.286644 0.282546 -0.14168 0.28744 0.271117 0.256506 0.129345
internal_weight=1577.6 1054.07 956.402 918.186 906.946 814.528 38.2161 523.536 23.9787 54.9513 759.576 388.905 370.671 499.557 192.579 90.6696 62.9442 353.936 270.76 243.034 34.969 27.7254 357.933 82.1771 45.2099 92.418 43.4615 275.755 16.2356 38.9654 32.721 83.1762 65.9415 21.2312 306.978 48.9566 293.24 31.9716 11.7396 37.4668 15.4863 20.2321 15.2365 23.2294 97.6634 20.2321 260.269 19.4827 23.9787 10.2409 16.9849 13.9876 77.1816 13.7378 33.4703 27.2259 18.4836 14.2374 11.7396 19.4827 101.91 12.7387 255.773 23.9787 13.7378 20.2321 30.7228 81.6776 15.4863 9.99114 14.4872 27.7254 14.4872 10.9903 241.286 44.9601 38.2161 76.4322 54.9513 21.7307 21.9805 77.4313 12.4889 11.4898 11.4898 15.4863 33.2205 13.7378 196.326 52.2037 20.4818 10.7405 17.9841 14.2374 27.7254 64.9424 31.7219 10.2409 144.122 21.2312 12.9885 11.7396
internal_count=6316 4220 3829 3676 3631 3261 153 2096 96 220 3041 1557 1484 2000 771 363 252 1417 1084 973 140 111 1433 329 181 370 174 1104 65 156 131 333 264 85 1229 196 1174 128 47 150 62 81 61 93 391 81 1042 78 96 41 68 56 309 55 134 109 74 57 47 78 408 51 1024 96 55 81 123 327 62 40 58 111 58 44 966 180 153 306 220 87 88 310 50 46 46 62 133 55 786 209 82 43 72 57 111 260 127 41 577 85 52 47
is_linear=0
shrinkage=1


Tree=1
num_leaves=88
num_cat=0
split_feature=12 864 30 275 206 1290 1170 21 1814 182 149 1351 77 1148 1489 18 1800 55 937 866 1 942 118 126 25 940 59 1841 64 1586 944 134 1758 1328 1012 23 90 1524 979 1652 1442 56 1560 1846 98 79 2 70 103 1609 864 1221 1703 114 1672 1651 64 1281 1322 34 22 1762 1873 2 223 225 1753 125 118 144 1096 1884 39 1005 1846 99 993 1839 1515 60 911 126 0 48 52 1005 1251
split_gain=1094.15 454.717 162.362 104.899 65.2875 62.1552 60.6854 55.2691 53.1137 35.124 36.366 35.6163 31.0448 25.6416 24.8234 23.6299 31.2972 35.3436 22.4173 21.8082 20.4339 22.7002 18.6234 18.3297 17.1482 18.1773 16.5404 16.5309 14.8419 14.1609 11.2431 8.57408 7.61158 8.1694 7.26494 7.17285 6.32024 5.97842 5.96796 5.70784 5.55724 7.77294 5.14715 6.12705 5.13957 4.76101 4.55657 4.55599 4.33003 3.98247 3.94731 6.13512 3.9221 2.39409 2.22494 2.12875 4.13821 2.98578 2.32995 2.25819 1.8541 1.69743 1.53737 1.22694 1.21978 1.20924 1.17225 1.07533 1.07101 1.01289 0.855404 0.798037 0.753287 0.930514 0.58093 0.953581 0.605619 0.475861 0.436174 0.188009 0.140019 0.394477 0.0688879 0.0685052 0.0475986 0.0363017 0.0316625
threshold=1.0000000180025095e-35 1.0000000180025095e-35 1.0000000180025095e-35 1.0000000180025095e-35 1.0000000180025095e-35 1.0000000180025095e-35 1.0000000180025095e-35 1.0000000180025095e-35 1.0000000180025095e-35 1.0000000180025095e-35 1.0000000180025095e-35 1.0000000180025095e-35 1.0000000180025095e-35 1.0000000180025095e-35 1.0000000180025095e-35 1.0000000180025095e-35 1.0000000180025095e-35 1.0000000180025095e-35 1.0000000180025095e-35 1.0000000180025095e-35 1.0000000180025095e-35 1.0000000180025095e-35 1.0000000180025095e-35 1.0000000180025095e-35 1.0000000180025095e-35 1.0000000180025095e-35 1.0000000180025095e-35 1.0000000180025095e-35 1.0000000180025095e-35 1.0000000180025095e-35 1.0000000180025095e-35 1.0000000180025095e-35 1.0000000180025095e-35 1.0000000180025095e-35 1.0000000180025095e-35 1.0000000180025095e-35 1.0000000180025095e-35 1.0000000180025095e-35 1.0000000180025095e-35 1.0000000180025095e-35 1.0000000180025095e-35 1.0000000180025095e-35 1.0000000180025095e-35 1.0000000180025095e-35 1.0000000180025095e-35 1.0000000180025095e-35 1.0000000180025095e-35 1.0000000180025095e-35 1.0000000180025095e-35 1.0000000180025095e-35 1.0000000180025095e-35 1.0000000180025095e-35 1.0000000180025095e-35 1.0000000180025095e-35 1.0000000180025095e-35 1.0000000180025095e-35 1.0000000180025095e-35 1.0000000180025095e-35 1.0000000180025095e-35 1.0000000180025095e-35 1.0000000180025095e-35 1.0000000180025095e-35 1.0000000180025095e-35 1.0000000180025095e-35 1.0000000180025095e-35 1.0000000180025095e-35 1.0000000180025095e-35 1.0000000180025095e-35 1.0000000180025095e-35 1.0000000180025095e-35 1.0000000180025095e-35 1.0000000180025095e-35 1.0000000180025095e-35 1.0000000180025095e-35 1.0000000180025095e-35 1.0000000180025095e-35 1.0000000180025095e-35 1.0000000180025095e-35 1.0000000180025095e-35 1.0000000180025095e-35 1.0000000180025095e-35 1.0000000180025095e-35 1.0000000180025095e-35 1.0000000180025095e-35 1.0000000180025095e-35 1.0000000180025095e-35 1.0000000180025095e-35
decision_type=2 2 2 2 2 2 2 2 2 2 2 2 2 2 2 2 2 2 2 2 2 2 2 2 2 2 2 2 2 2 2 2 2 2 2 2 2 2 2 2 2 2 2 2 2 2 2 2 2 2 2 2 2 2 2 2 2 2 2 2 2 2 2 2 2 2 2 2 2 2 2 2 2 2 2 2 2 2 2 2 2 2 2 2 2 2 2
left_child=6 2 3 4 5 7 15 9 37 10 11 19 22 28 -13 38 29 32 23 -2 44 47 -12 45 25 -19 -25 -8 42 35 -15 53 33 78 -30 69 -35 40 49 50 66 46 43 48 -7 -11 -42 -22 -6 55 -37 52 -52 -23 -14 57 59 58 62 84 63 -53 70 -61 85 -5 72 -32 -49 80 77 -26 73 74 75 76 -3 -1 -18 -4 -17 -82 -74 -48 -57 -34 -27
right_child=1 8 79 65 13 20 27 -9 -10 18 12 14 54 30 -16 16 17 24 -20 -21 21 31 -24 26 71 86 -28 -29 34 -31 67 -33 64 36 -36 39 -38 -39 -40 -41 41 -43 -44 -45 -46 -47 83 68 -50 -51 51 61 -54 -55 -56 56 -58 -59 -60 60 -62 -63 -64 -65 -66 -67 -68 -69 -70 -71 -72 -73 82 -75 -76 -77 -78 -79 -80 -81 81 -83 -84 -85 -86 -87 -88
leaf_value=0.20696865850352683 -0.16203423161430455 0.15187494221530523 0.21216845198527667 0.21375959810465095 -0.07312680105167034 -0.19593891414263714 0.054485916487354125 0.19672683864333959 -0.12860125300971256 -0.19811338314391644 0.10484380099426452 0.024814879346818138 -0.23163982731130217 0.008466184017320709 -0.19400674726892669 0.21271831497750684 0.13948389503080871 0.21727665408024222 0.035791266689569057 -0.092918926363132787 0.064695214122230837 -0.04490736063449851 -0.056861644058726221 -0.10455498658618759 -0.18703474736896961 -0.029862275829670683 -0.16714238150107658 -0.19440155672606457 -0.026264846888287351 0.02665153613533237 0.14336310046856068 -0.18331377582406205 0.21581362221664088 -0.057172694690817739 0.16392606250158226 0.21191764274184874 0.12229063626423774 0.055186329656499798 0.083437071568020119 0.21198019270173465 0.073610626299070989 -0.0082755108183326757 0.0018332344241471805 -0.03655738723245297 -0.050512120687179057 -0.14282100227384228 0.21743789052025181 0.21538570533713255 -0.21278422080333559 0.088210970321592599 0.087416800894869306 -0.002266494102638131 0.21799335466738584 0.069176257301495306 -0.13050976092524333 0.21391578242825388 0.072561164209108367 0.10931047213974518 0.11599010820953971 0.21269796567212321 0.093480869142338135 0.082119623018215779 0.15248903874418621 0.13594982336021577 0.14054824708302835 0.14169607955878141 0.13713489055398301 0.21765259773254866 0.14593501944895332 0.15528869124436936 0.16089291592981877 -0.11917002892627485 0.21258203516987173 0.14627419937684855 0.21209642906867246 0.21471156224073454 0.19614896185322411 0.16725211672198378 0.19296953169919248 0.18629729393159122 0.2115398426735034 0.16538624854505055 0.18846654659153111 0.18867791578687779 0.19047409019269265 0.19282445584153476 -0.042366974548161969
leaf_weight=167.76732355356216 164.94500440359116 15.033740043640138 16.430130392313004 12.030495256185533 4.9932692348957088 5.9843318015336964 7.1859911680221531 7.6650550961494437 9.4411354660987836 134.03900857269764 25.09042751789093 37.061124637722969 5.4892397075891495 8.2065328806638718 9.4749585092067701 48.324534744024277 4.9141860604286194 5.6682779937982568 8.9865321367979032 112.1007172614336 7.9580433517694482 5.7400634884834272 17.707628309726715 122.03197908401489 5.4881126284599322 4.9784368127584449 125.08408577740192 8.4456841945648193 5.7197627276182157 9.619989261031149 4.9303369969129562 4.970687821507453 9.8411410748958605 6.7169647812843323 5.9656247347593307 5.1542853266000739 4.9457254707813263 6.4398645162582389 8.129771947860716 12.26040183007717 5.9181352853775069 5.206375151872634 6.9710084348916999 8.7492948770523071 8.7204913049936295 27.880013808608055 6.1741001158952713 6.6416863352060318 9.4529373794794083 5.6652751564979544 6.6441398411989212 6.9466580301523209 6.9056202620267868 4.9889859110116959 7.974656477570532 16.207295507192615 5.9118125438690177 5.657066896557807 4.9187002480030051 6.6332108676433581 5.9121897071599951 6.9355220645666122 9.3728956431150419 6.1537866145372391 5.6989195197820655 5.1526305526494971 6.3843054771423331 7.8910636901855469 7.1302356719970703 6.1460543870925894 7.1129601150751105 5.2297066152095795 24.531297683715824 8.8546801656484586 14.227501034736632 9.0967217981815356 7.3658989965915671 5.3981654196977606 5.1783736944198608 9.5601890683174151 8.8250292390584928 5.1548966467380515 4.9159363061189643 5.1526231169700623 4.9147558957338324 5.6490594446659079 9.223415732383728
leaf_count=684 662 61 67 49 20 24 29 31 38 539 101 149 22 33 38 197 20 23 36 450 32 23 71 490 22 20 503 34 23 39 20 20 40 27 24 21 20 26 33 50 24 21 28 35 35 112 25 27 38 23 27 28 28 20 32 66 24 23 20 27 24 28 38 25 23 21 26 32 29 25 29 21 100 36 58 37 30 22 21 39 36 21 20 21 20 23 37
internal_value=8.4417e-05 -0.0663199 -0.0948095 -0.103067 -0.10859 -0.117302 0.153827 -0.125576 0.146914 -0.12868 -0.10207 -0.117656 -0.0124105 0.0102336 -0.0198406 0.161848 0.130183 0.067793 -0.15285 -0.134082 0.010537 0.0579419 0.0379459 -0.156997 -0.0314399 0.0350104 -0.136253 -0.0801083 -0.0444515 0.167479 0.118976 -0.0526914 0.138444 0.0880425 0.0710135 0.179426 0.0190573 0.168746 0.185776 0.14165 0.175208 0.12108 -0.0892061 -0.116531 -0.109992 -0.188623 0.160077 0.137834 -0.16478 0.189072 0.115007 0.0965736 0.154321 0.00818912 -0.172191 0.191383 0.167412 0.196831 0.199357 0.181424 0.150246 0.0399844 0.201499 0.176193 0.189983 0.192453 0.188602 0.189512 0.179849 0.204098 0.20402 -0.154373 0.192459 0.183544 0.190655 0.180765 0.166692 0.205762 0.167449 0.202892 0.20883 0.194937 0.208765 0.204922 0.208757 0.207844 -0.0380603
internal_weight=1564.3 1092.46 963.718 937.728 920.545 857.665 471.836 805.53 128.742 797.865 379.844 323.582 56.262 62.8798 46.5361 456.205 196.449 73.5323 418.022 277.046 52.1345 37.4297 42.7981 409.035 30.5879 19.8701 247.116 15.6317 41.8519 122.917 21.0279 15.6997 42.9444 21.7553 11.6854 113.297 11.6627 119.301 259.755 44.8466 112.861 22.4512 30.1665 23.1955 14.7048 161.919 17.2449 21.73 14.4462 251.625 32.5862 27.4319 13.5498 10.729 13.4639 245.96 45.7331 200.227 194.57 39.8212 18.6992 13.8822 189.651 12.787 21.1891 17.1831 90.4101 12.8214 13.7719 68.4505 180.278 10.7178 84.0258 54.5785 45.7239 31.4964 22.3996 173.165 10.0926 25.9903 62.3045 13.9799 29.4472 11.3267 21.1221 15.4902 14.2019
internal_count=6316 4398 3875 3769 3699 3446 1918 3236 523 3205 1525 1299 226 253 187 1855 797 297 1680 1112 210 151 172 1644 123 80 993 63 168 500 85 63 174 88 47 461 47 485 1058 182 459 91 121 93 59 651 70 88 58 1025 132 111 55 43 54 1002 186 816 793 162 76 56 773 52 86 70 368 52 56 279 735 43 342 222 186 128 91 706 41 106 254 57 120 46 86 63 57
is_linear=0
shrinkage=0.120816


Tree=2
num_leaves=92
num_cat=0
split_feature=29 12 21 23 1826 7 105 1841 177 1569 1161 1696 95 1818 42 1652 1763 75 65 148 1164 1017 1739 1454 1251 1488 1037 18 1800 106 993 176 94 1674 98 122 72 1814 94 138 130 117 104 213 1258 138 38 94 1034 110 1226 107 7 993 1155 993 127 68 1278 1356 1883 980 172 46 102 1251 22 89 220 34 993 70 1179 945 53 1254 138 1056 110 986 1271 86 1148 72 1845 1696 62 1884 80 7 866
split_gain=988.691 382.945 97.7583 66.3183 55.4388 46.808 32.8992 44.014 32.0619 33.2887 28.0462 27.8051 24.7416 25.7866 24.2997 23.8951 21.345 20.8615 20.1251 24.7135 18.9581 18.2826 17.6833 15.9677 15.8961 14.8834 16.5263 14.6616 11.3453 11.3368 18.6817 11.5424 10.4249 9.7262 9.44422 9.17168 7.76756 7.67838 7.03047 6.53064 6.23539 5.73682 11.0964 5.42281 5.31318 5.24263 4.5134 4.23418 3.83069 3.77167 5.95103 3.58004 3.53179 3.43853 3.2873 3.28657 3.03601 2.80655 2.78327 2.78877 2.96477 3.01601 2.6354 2.35378 2.11172 2.00576 1.99413 1.86398 1.78036 1.7036 1.68068 1.67702 1.56687 1.52695 1.33506 1.21495 1.13028 0.892587 0.793317 0.752741 0.60647 0.453381 0.429547 0.324953 0.26378 0.182264 0.0985758 0.403259 0.0362893 0.0246123 0.0208845
threshold=1.0000000180025095e-35 1.0000000180025095e-35 1.0000000180025095e-35 1.0000000180025095e-35 1.0000000180025095e-35 1.0000000180025095e-35 1.0000000180025095e-35 1.0000000180025095e-35 1.0000000180025095e-35 1.0000000180025095e-35 1.0000000180025095e-35 1.0000000180025095e-35 1.0000000180025095e-35 1.0000000180025095e-35 1.0000000180025095e-35 1.0000000180025095e-35 1.0000000180025095e-35 1.0000000180025095e-35 1.0000000180025095e-35 1.0000000180025095e-35 1.0000000180025095e-35 1.0000000180025095e-35 1.0000000180025095e-35 1.0000000180025095e-35 1.0000000180025095e-35 1.0000000180025095e-35 1.0000000180025095e-35 1.0000000180025095e-35 1.0000000180025095e-35 1.0000000180025095e-35 1.0000000180025095e-35 1.0000000180025095e-35 1.0000000180025095e-35 1.0000000180025095e-35 1.0000000180025095e-35 1.0000000180025095e-35 1.0000000180025095e-35 1.0000000180025095e-35 1.0000000180025095e-35 1.0000000180025095e-35 1.0000000180025095e-35 1.0000000180025095e-35 1.0000000180025095e-35 1.0000000180025095e-35 1.0000000180025095e-35 1.0000000180025095e-35 1.0000000180025095e-35 1.0000000180025095e-35 1.0000000180025095e-35 1.0000000180025095e-35 1.0000000180025095e-35 1.0000000180025095e-35 1.0000000180025095e-35 1.0000000180025095e-35 1.0000000180025095e-35 1.0000000180025095e-35 1.0000000180025095e-35 1.0000000180025095e-35 1.0000000180025095e-35 1.0000000180025095e-35 1.0000000180025095e-35 1.0000000180025095e-35 1.0000000180025095e-35 1.0000000180025095e-35 1.0000000180025095e-35 1.0000000180025095e-35 1.0000000180025095e-35 1.0000000180025095e-35 1.0000000180025095e-35 1.0000000180025095e-35 1.0000000180025095e-35 1.0000000180025095e-35 1.0000000180025095e-35 1.0000000180025095e-35 1.0000000180025095e-35 1.0000000180025095e-35 1.0000000180025095e-35 1.0000000180025095e-35 1.0000000180025095e-35 1.0000000180025095e-35 1.0000000180025095e-35 1.0000000180025095e-35 1.0000000180025095e-35 1.0000000180025095e-35 1.0000000180025095e-35 1.0000000180025095e-35 1.0000000180025095e-35 1.0000000180025095e-35 1.0000000180025095e-35 1.0000000180025095e-35 1.0000000180025095e-35
decision_type=2 2 2 2 2 2 2 2 2 2 2 2 2 2 2 2 2 2 2 2 2 2 2 2 2 2 2 2 2 2 2 2 2 2 2 2 2 2 2 2 2 2 2 2 2 2 2 2 2 2 2 2 2 2 2 2 2 2 2 2 2 2 2 2 2 2 2 2 2 2 2 2 2 2 2 2 2 2 2 2 2 2 2 2 2 2 2 2 2 2 2
left_child=6 41 3 4 5 8 21 12 9 11 16 20 43 17 -12 23 18 75 24 -20 22 37 -3 25 -10 26 33 66 55 38 31 -31 -28 -7 56 -18 -29 44 49 -36 45 76 72 57 58 83 78 63 54 50 -6 -52 -4 -45 77 -19 -27 85 59 60 61 68 64 -33 -40 -38 84 -11 80 -68 -70 -16 90 -9 -59 -14 82 -15 -32 -30 -1 -5 86 -25 -23 88 -2 -88 -8 -86 -43
right_child=1 2 52 81 29 15 7 73 10 67 14 -13 13 48 71 -17 35 28 19 -21 -22 27 -24 40 -26 34 32 36 79 30 46 47 -34 -35 39 -37 65 -39 62 -41 -42 42 -44 53 -46 -47 -48 -49 -50 -51 51 -53 -54 -55 -56 -57 -58 74 -60 -61 -62 -63 -64 -65 -66 -67 69 -69 70 -71 -72 -73 -74 -75 -76 -77 -78 -79 -80 -81 -82 -83 -84 -85 89 -87 87 -89 -90 -91 -92
leaf_value=0.18963698055312919 0.19721736258524999 -0.09158824696373033 0.20344099063423596 0.160435073347475 0.040872094428191591 -0.16417816259248261 0.19583902760302477 -0.18921845743751237 -0.14697303542483986 0.10140874528329363 -0.17981990251064747 0.16904760101895341 0.079643283675309512 0.13784745698567005 0.096785048048194197 0.094302970768394223 -0.089949313491199834 -0.057466538125097943 0.049682423551709043 -0.16222003652443778 0.16540194285917897 0.15394903254009526 0.11602390662539731 -0.064280603917159868 0.0063180368185340495 -0.090470969753284031 -0.11688497419598091 0.10694181560391175 -0.19996387540809296 0.12201348949017524 0.13712655804388638 -0.079377001168001809 0.053972922090350511 -0.061888823333145736 0.096811554607174999 0.10006520738694651 0.019951016347559601 0.017382397554120903 -0.079368251203271414 -0.072233472413262848 0.027520500369597065 0.19629183703152014 -0.033540372369662674 0.011928075176083559 0.080194794177462878 -0.18654460444101637 0.059435473209527058 -0.0081982107891978833 0.04784098499313106 -0.16845090620629247 -0.1852578646296815 -0.046000064544143897 0.094970804245743196 0.140298204704499 0.075808255609860514 0.067354769015499583 -0.19227116445629894 0.17751626998307088 0.10370223970715445 0.11282805300860085 0.10586988408210006 0.095515775561354502 0.042184447818134851 -0.18833778358088257 0.019349983745230514 -0.073228445486078458 0.15157272694303037 0.19611919500312708 0.12235103748253751 0.05789684983269628 0.19913766532678476 0.18765687149302507 0.10482152587388238 -0.09770739604730834 0.10329697250223882 0.15736940671311953 0.14159256449482183 0.1981004656978336 0.20660742603496338 -0.13463132627833546 0.16547245418213072 0.21253412315107634 0.15639428695874885 -0.023305654024666538 0.20300480947542118 0.16968834009621281 0.15280193271861625 0.19638298712177268 0.17898400519975757 0.17953651570987672 0.1741716918334614
leaf_weight=217.372019931674 39.333538576960564 91.505243614315987 14.12965999543667 5.0279836207628232 5.2027544975280806 332.64670762419701 29.300916701555252 5.1178421229124051 180.56245531141758 5.3732551485300046 4.9757970571517953 7.8505152910947791 6.540547773241995 5.325584352016457 7.1557110846042633 6.4015771746635428 6.1720589846372578 6.6756308674812317 19.693937346339226 13.524246752262114 4.8746149539947501 5.260924920439721 6.380788028240203 6.3915711194276827 10.442711189389227 14.488461792469026 13.709694772958755 9.3650073409080505 5.6584288626909256 5.2056458890438106 4.8430107086896896 7.1989507675170916 8.3740375488996506 14.19839885830879 6.4321965724229795 9.1869301646947861 5.6814816147088996 4.6719821542501441 7.943331241607666 6.8613858819007874 9.6220946460962313 6.4014851748943382 5.6359461694955817 5.3601646423339826 8.7003611475229246 5.8420037180185309 9.5550963282585144 7.4518429636955252 5.6678029596805564 7.629664570093154 5.4139943867921829 5.3892445862293243 6.4770894497632971 7.0416360795497894 5.5685336887836447 5.659905344247818 6.1200176924467078 5.4871748685836801 7.6238302737474433 9.3377593606710416 7.6575117558240882 5.7454067170619956 9.8803586214780807 4.9083802700042725 5.2244527339935303 8.2234915345907211 6.974378168582918 7.348206639289856 12.609086990356447 4.8592787384986877 6.4390225708484641 5.2216300666332245 5.0175495892763129 5.8101113736629486 10.605417132377625 5.50676329433918 8.7672866731882078 14.020507529377937 5.5388681888580322 5.4256359189748764 18.512404799461365 6.5642193853855133 6.1480860114097586 5.1411758810281754 5.0574006736278534 9.0004190653562528 5.46237337589264 10.891515210270882 7.551921233534812 5.9829776287078857 5.2288231998682022
leaf_count=916 166 371 59 21 21 1358 124 21 733 22 20 33 27 22 29 26 25 27 80 55 20 22 26 26 42 59 56 38 23 21 20 29 34 57 26 37 23 19 32 28 39 27 23 22 36 24 39 30 23 31 22 22 27 29 23 23 25 23 32 39 32 24 40 20 21 33 29 31 53 20 27 21 21 24 44 23 37 59 23 22 78 27 26 21 21 38 23 46 32 25 22
internal_value=0.00017056 -0.0673968 -0.0905208 -0.096355 -0.100023 -0.110011 0.139366 0.0922622 -0.0790166 -0.0283723 -0.10332 -0.04967 0.110446 0.0565957 0.0449255 -0.137022 -0.114062 -0.0135114 -0.123499 -0.0366631 -0.0664265 0.159717 -0.0780215 -0.140474 -0.138593 -0.146502 -0.153544 0.0930735 -0.0799398 -0.0107802 0.0326945 -0.0373722 -0.0521121 -0.159997 -0.0698014 0.0236791 0.0220747 0.171177 -0.0524031 0.00959616 -0.0504475 0.166586 0.112848 0.15824 0.173618 -0.0935972 0.119649 -0.0799222 0.137829 -0.0986548 -0.0651157 -0.116129 0.169546 0.0849886 0.158213 -0.000168845 -0.120953 0.172854 0.176458 0.178444 0.180713 0.182899 -0.0049015 -0.123929 -0.0402487 -0.0351974 0.151704 0.15647 0.184856 0.113366 0.148598 0.135505 0.162376 -0.140991 0.128905 0.115493 0.183489 0.181768 0.174715 -0.168462 0.187763 0.190439 0.189353 -0.0461291 0.179259 0.188178 0.1929 0.182152 0.192543 0.190841 0.186851
internal_weight=1534.37 1032.97 940.082 919.475 907.883 816.497 501.399 151.325 380.268 123.333 256.935 110.611 140.397 66.0493 17.3531 436.229 239.582 35.4669 224.223 33.2182 102.761 350.074 97.886 429.828 191.005 402.831 368.929 51.4049 23.4196 91.3856 44.7018 24.7648 22.0837 346.845 33.9021 15.359 23.27 298.669 46.6838 13.2936 26.9968 92.8866 22.2838 74.3476 293.997 17.3748 19.937 19.5592 30.5824 23.6357 16.006 10.8032 20.6067 12.4018 24.9146 12.3355 20.6085 61.9458 285.297 277.673 268.335 260.678 23.0481 12.1073 13.1678 13.905 28.135 12.7215 254.933 11.8337 19.0481 12.3773 16.6479 10.928 16.0926 12.0473 70.6028 19.3461 10.3819 11.0841 235.884 11.5922 61.8355 11.5327 16.3013 45.8533 55.6874 16.3539 36.8528 11.0404 11.6303
internal_count=6316 4220 3829 3743 3695 3324 2096 629 1545 503 1042 450 584 272 70 1779 972 145 910 135 417 1467 397 1753 775 1643 1505 211 95 371 182 100 90 1415 138 62 94 1256 189 54 110 391 93 312 1237 71 82 79 127 96 65 44 86 51 104 50 84 261 1201 1169 1130 1098 93 49 53 56 117 53 1074 49 80 50 70 45 67 50 298 81 43 45 994 48 261 47 68 194 235 69 156 46 49
is_linear=0
shrinkage=0.120816


Tree=3
num_leaves=103
num_cat=0
split_feature=29 12 21 23 1826 7 1563 1170 1351 141 91 28 1426 1652 42 78 42 70 1586 1800 139 1009 1198 50 71 1321 1674 179 106 993 176 1488 96 45 98 917 1703 1752 1228 59 1758 898 1306 50 72 61 127 1797 1515 53 78 172 9 1762 1298 119 138 46 1075 36 1211 324 7 938 98 1666 925 111 1746 142 38 101 15 105 1714 993 87 50 33 1714 55 949 207 1515 17 1758 1 45 1846 74 87 86 1820 1293 1094 1187 36 110 14 78 126 30
split_gain=793.862 306.631 77.9009 52.8326 44.3852 38.2033 28.7752 28.3003 25.215 34.653 22.9992 22.8872 22.6775 19.0775 18.9055 15.172 16.7664 13.8893 22.1144 17.3125 13.6495 26.7281 13.0457 12.9799 12.4918 11.9199 10.9103 9.74412 8.87071 14.8234 9.02625 8.72806 8.60085 8.43951 7.77966 7.65806 8.03674 10.6509 15.6825 7.64592 7.07249 6.73086 6.30582 6.16053 7.91073 5.63414 5.06842 10.1763 4.80488 4.56257 4.80909 4.31711 4.08547 3.79317 4.1715 3.67742 3.65833 3.63093 3.6101 3.54238 3.21906 3.1742 3.10418 3.04616 3.03803 3.01265 2.90559 2.77965 2.47008 2.0744 1.9665 1.95144 1.86376 4.11193 2.25061 1.71128 1.69737 1.46086 1.41571 3.2513 1.16058 1.88108 1.15003 1.12143 0.897708 2.12256 0.844175 0.758598 1.17642 0.742997 1.93148 0.534307 0.788169 0.568568 0.427966 0.426389 0.392921 0.240831 0.0824496 0.323944 0.0239492 0.0202022
threshold=1.0000000180025095e-35 1.0000000180025095e-35 1.0000000180025095e-35 1.0000000180025095e-35 1.0000000180025095e-35 1.0000000180025095e-35 1.0000000180025095e-35 1.0000000180025095e-35 1.0000000180025095e-35 1.0000000180025095e-35 1.0000000180025095e-35 1.0000000180025095e-35 1.0000000180025095e-35 1.0000000180025095e-35 1.0000000180025095e-35 1.0000000180025095e-35 1.0000000180025095e-35 1.0000000180025095e-35 1.0000000180025095e-35 1.0000000180025095e-35 1.0000000180025095e-35 1.0000000180025095e-35 1.0000000180025095e-35 1.0000000180025095e-35 1.0000000180025095e-35 1.0000000180025095e-35 1.0000000180025095e-35 1.0000000180025095e-35 1.0000000180025095e-35 1.0000000180025095e-35 1.0000000180025095e-35 1.0000000180025095e-35 1.0000000180025095e-35 1.0000000180025095e-35 1.0000000180025095e-35 1.0000000180025095e-35 1.0000000180025095e-35 1.0000000180025095e-35 1.0000000180025095e-35 1.0000000180025095e-35 1.0000000180025095e-35 1.0000000180025095e-35 1.0000000180025095e-35 1.0000000180025095e-35 1.0000000180025095e-35 1.0000000180025095e-35 1.0000000180025095e-35 1.0000000180025095e-35 1.0000000180025095e-35 1.0000000180025095e-35 1.0000000180025095e-35 1.0000000180025095e-35 1.0000000180025095e-35 1.0000000180025095e-35 1.0000000180025095e-35 1.0000000180025095e-35 1.0000000180025095e-35 1.0000000180025095e-35 1.0000000180025095e-35 1.0000000180025095e-35 1.0000000180025095e-35 1.0000000180025095e-35 1.0000000180025095e-35 1.0000000180025095e-35 1.0000000180025095e-35 1.0000000180025095e-35 1.0000000180025095e-35 1.0000000180025095e-35 1.0000000180025095e-35 1.0000000180025095e-35 1.0000000180025095e-35 1.0000000180025095e-35 1.0000000180025095e-35 1.0000000180025095e-35 1.0000000180025095e-35 1.0000000180025095e-35 1.0000000180025095e-35 1.0000000180025095e-35 1.0000000180025095e-35 1.0000000180025095e-35 1.0000000180025095e-35 1.0000000180025095e-35 1.0000000180025095e-35 1.0000000180025095e-35 1.0000000180025095e-35 1.0000000180025095e-35 1.0000000180025095e-35 1.0000000180025095e-35 1.0000000180025095e-35 1.0000000180025095e-35 1.0000000180025095e-35 1.0000000180025095e-35 1.0000000180025095e-35 1.0000000180025095e-35 1.0000000180025095e-35 1.0000000180025095e-35 1.0000000180025095e-35 1.0000000180025095e-35 1.0000000180025095e-35 1.0000000180025095e-35 1.0000000180025095e-35 1.0000000180025095e-35
decision_type=2 2 2 2 2 2 2 2 2 2 2 2 2 2 2 2 2 2 2 2 2 2 2 2 2 2 2 2 2 2 2 2 2 2 2 2 2 2 2 2 2 2 2 2 2 2 2 2 2 2 2 2 2 2 2 2 2 2 2 2 2 2 2 2 2 2 2 2 2 2 2 2 2 2 2 2 2 2 2 2 2 2 2 2 2 2 2 2 2 2 2 2 2 2 2 2 2 2 2 2 2 2
left_child=7 46 3 4 5 6 8 15 9 10 12 65 -3 20 25 35 17 53 19 58 26 32 56 -23 -12 -10 27 31 45 30 -30 -7 42 41 -27 36 61 38 40 -25 -38 -21 -22 60 -45 49 80 67 -29 50 69 -31 -37 54 84 89 -16 71 68 66 -11 72 -4 -13 -28 -9 -32 -48 78 -6 -52 -55 91 74 -74 -63 -53 -57 -19 -80 95 -82 -76 -34 101 -86 87 -18 -89 90 100 92 93 97 -95 98 -5 -1 -2 -100 -8 -17
right_child=1 2 62 96 28 13 55 11 14 43 24 63 -14 -15 22 16 86 18 -20 33 21 23 -24 39 -26 34 64 48 29 51 59 -33 83 -35 -36 52 37 -39 -40 -41 -42 -43 -44 44 -46 -47 47 -49 -50 -51 70 76 -54 57 -56 77 -58 -59 -60 -61 -62 75 -64 -65 -66 -67 -68 -69 -70 -71 -72 -73 73 -75 82 -77 -78 -79 79 -81 81 -83 -84 -85 85 -87 -88 88 -90 -91 -92 -93 -94 94 -96 -97 -98 -99 99 -101 -102 -103
leaf_value=0.1784952896031452 0.18327786854520384 -0.0051675212583417469 0.18832399511180695 0.14589218490400488 -0.0056797471898762672 -0.15411229197472154 -0.17835586711324516 0.18736966467400279 0.09520292312848487 -0.18258804715599877 -0.12281897063362229 -0.039508777624943064 -0.16353834099567105 0.082505280236782261 0.15532835660417957 0.18656509199911428 0.18150412357840134 0.13858364926552746 -0.15603260002537561 -0.014981731762782877 -0.10704774036001763 -0.086042889466647968 -0.094931435212091062 0.014795186032370932 0.031950969560822717 -0.024775847612079592 -0.080998160318785498 -0.0035432889315545899 0.10804983525845215 0.0068964740113609526 0.020038380228189392 -0.075087213128141608 -0.1480744050150202 -0.11298234278514334 -0.19863693268118293 0.11319476571018802 0.03499049339388427 0.19127357057080108 -0.13539340358131025 0.20296032377652634 0.18912919673187842 0.14283621552366396 0.020689968858014596 0.013341347260544277 -0.16245083635287555 -0.13998288424139393 0.18711884754292854 -0.056327109946330355 -0.12886801667385867 -0.1110862400244676 0.093511488493459069 0.099622405469734387 -0.025730567580070519 0.089082323543231035 0.045758053406214069 -0.14075252385388565 0.05340136806294133 0.15513220038628955 0.18327305635846539 -0.14765288238236976 -0.082863438933447331 0.074019144602698442 0.085233756379948081 -0.16222836039769736 0.052205197893514708 0.055798662889090814 -0.092615041127366113 0.074088110074932795 0.17781537275548995 -0.089125263113118094 0.001782275974911262 -0.0044969910047981078 0.080099964906153689 0.047770069771653469 0.18508910463942699 0.16308684486947689 0.18232999855791684 -0.055874594748605441 0.14850430016005844 0.033621488974025067 0.084644550926110285 0.18381713543439446 0.12359419012066701 -0.2001592552542763 0.083141373197209434 0.18592580839822329 0.12727735686171038 0.10502166018105089 0.18139712022217525 -0.20228456162208514 -0.10287238183264531 0.18409509901336713 0.13128253545497032 0.14258744072610036 0.18579082827313412 0.14307432751539756 0.19515988384796651 0.16135926490977268 0.18442669115460963 0.1439941311814292 -0.20178238143586824 0.16931914719213201
leaf_weight=79.834245577454567 38.162209361791611 129.63906835019588 13.463262319564821 4.8511279821395856 8.3990810066461563 270.94407585263252 4.8184655010700244 5.7074529528617859 4.9308873862028131 43.172694072127342 64.326202139258385 4.883531466126442 14.661766037344931 6.4348993450403205 15.95890355110169 13.89158119261265 31.682874009013176 5.0242213457822862 7.0157430469989768 11.635590568184858 45.56214751303196 7.8676018267869958 4.8338882178068152 6.1456096321344376 8.6199594587087613 6.8349522948265067 4.9458440542221052 10.476135179400446 5.1740406304597881 4.7090942859649667 6.6822073757648486 22.160515546798706 11.68893726170063 7.6973231732845298 8.3373571038246155 8.3038582205772382 9.419396191835407 12.52409417927265 5.019009441137313 6.450998529791832 8.0626310259103775 5.9318611770868293 6.4266947954893103 6.8251892626285526 8.2128212600946426 7.7842463403940192 9.373090401291849 4.6796819269657126 7.753208562731742 7.6100826561450949 6.6741603612899798 7.6851027607917786 4.8936052173376074 7.1844224482774752 4.9092169106006613 6.9846311807632429 7.6429479867219916 6.9179075956344596 10.107676282525061 6.040383279323577 5.3922164887189856 8.5792838931083661 6.3565756529569617 7.5361519455909729 4.9889938533306122 4.6245604157447815 6.6348929554224014 4.8895080238580695 4.7518035918474189 8.9950528889894485 6.9460601955652237 5.9166544377803802 4.5558160543441764 5.6441138982772818 22.414005964994434 5.0475931316614142 7.12337726354599 5.2339548766613007 4.9708140194416126 12.887230426073067 5.925205394625662 5.4266865402460098 5.8962836116552344 14.070809260010719 5.5786756277084333 6.3706662952899933 7.9908387362956992 5.9267125278711301 6.249442458152771 15.880272656679152 5.3057644069194785 51.572680860757828 8.2892931550741178 16.772684738039974 4.784525901079177 6.0673309862613669 6.3208707123994827 18.907514154911041 8.5962238162755948 5.7068476527929297 6.4934239834547043 6.6423077136278144
leaf_count=354 170 536 59 21 34 1140 20 25 20 180 265 20 61 26 65 61 140 22 29 47 189 32 20 25 35 28 20 43 21 19 27 92 49 32 34 35 40 54 21 26 35 25 26 28 34 32 41 19 32 31 27 33 20 30 21 29 31 30 45 25 22 36 27 32 20 19 27 21 20 37 28 25 20 24 99 22 30 22 21 53 26 24 26 59 24 28 35 26 28 66 22 229 36 74 21 27 27 83 38 25 27 29
internal_value=0.000243529 -0.060645 -0.0813113 -0.086521 -0.0897987 -0.0988683 -0.0706876 0.127718 -0.0583307 -0.0722261 -0.0492502 -0.00380755 -0.0212915 -0.123614 0.0220637 0.134226 0.106732 0.083128 0.0469784 0.0696511 -0.126782 -0.0873125 0.0854218 0.0354933 -0.104524 -0.067549 -0.138838 -0.142815 -0.00957924 0.0292442 -0.0332607 -0.148146 -0.119637 -0.00775689 -0.120531 0.151783 0.15622 0.102102 0.0522683 0.111428 0.106294 0.0384698 -0.0912542 -0.150641 -0.0828061 -0.0464235 0.153695 0.0979795 -0.0569778 -0.0274678 -0.00685702 0.107732 0.0617436 0.127167 0.149921 -0.161604 0.122438 0.0844969 0.121432 -0.0711471 -0.171577 0.164365 0.155451 -0.114199 -0.0141542 0.128832 -0.0361754 0.148622 0.0986267 -0.0489162 0.0468448 0.0469122 0.167904 0.143371 0.159726 0.107315 0.139714 -0.104635 0.0819574 0.0658072 0.168745 0.132436 0.172435 -0.176737 0.165603 0.138289 0.164657 0.17137 0.144593 -0.182899 -0.164022 0.173122 0.168676 0.171218 0.152437 0.17571 0.174243 0.175267 0.179395 0.168651 -0.192333 0.181258
internal_weight=1492.85 1010.3 921.471 901.652 890.48 800.022 374.105 482.556 329.389 280.85 217.247 22.7517 144.301 425.916 48.5389 459.804 179.284 127.434 70.0223 63.0065 419.482 98.2128 28.4357 20.4642 72.9462 20.1032 321.269 311.334 90.4578 44.0491 24.5315 293.105 77.7486 25.2648 15.1723 280.521 267.323 35.0251 22.501 12.5966 17.482 17.5675 51.9888 63.6029 15.038 46.4087 88.8268 18.9423 18.2293 38.6244 31.0144 19.5176 13.1975 57.4114 37.3924 44.7165 23.6019 20.019 37.7417 19.3575 48.5649 232.298 19.8198 12.4197 9.93484 10.332 13.3171 14.2626 27.6341 17.3941 13.6202 13.1011 218.671 38.5102 32.8661 13.6269 14.8085 12.2186 22.8823 17.858 69.8845 11.3519 28.3103 25.7597 32.4832 11.9493 51.8499 43.859 12.1762 32.4979 16.6177 180.161 128.588 120.299 21.5572 58.5326 11.172 98.7418 52.4653 14.3031 11.3119 20.5339
internal_count=6316 4220 3829 3743 3695 3324 1545 2096 1359 1161 897 96 597 1779 198 2000 771 542 294 265 1753 406 116 83 300 82 1347 1307 371 182 100 1232 323 104 62 1229 1174 150 96 51 75 72 215 264 62 189 391 81 75 157 126 82 55 248 163 186 96 85 161 79 202 1024 86 52 40 44 54 62 116 71 55 55 966 169 145 58 63 51 96 74 310 50 125 108 142 52 229 194 54 135 69 797 568 532 95 260 48 437 233 63 47 90
is_linear=0
shrinkage=0.120816


Tree=4
num_leaves=101
num_cat=0
split_feature=29 12 864 270 1859 1008 1563 7 898 178 105 1586 1645 1672 1846 75 1441 1606 1652 193 1017 1524 1321 969 1362 1 179 866 18 139 1800 119 58 1008 71 147 907 118 866 4 1814 1521 44 166 70 117 104 85 99 40 82 1258 1012 1194 98 70 1734 166 1649 1746 143 74 94 36 146 218 898 101 147 1365 58 945 1883 220 1221 201 1025 1179 58 993 1672 74 34 139 149 50 34 135 1034 1087 56 62 898 993 1758 168 1515 18 118 1251
split_gain=642.798 247.529 66.9294 44.5349 38.9899 38.0284 27.7859 30.1958 29.7914 25.7606 23.9183 30.4812 22.8731 21.7356 18.8923 18.5562 18.1122 21.0105 16.6004 15.1755 14.7611 14.5154 12.9717 11.743 11.5389 25.0515 12.9299 11.4426 10.6743 9.69575 8.57123 8.30749 8.17682 8.04048 7.53878 7.34561 7.9724 7.5277 7.32253 7.06854 6.20303 5.99521 5.95283 5.59632 5.04533 4.95251 8.18585 4.88836 4.81483 4.73151 4.59928 4.59688 4.59424 4.33451 4.3033 3.89859 3.57194 3.33154 3.07417 6.55473 2.82973 2.78908 2.62057 2.47336 2.30193 2.19598 2.19503 2.14969 3.64442 1.98124 1.89932 1.86576 1.60613 1.75635 2.85927 1.58399 1.44125 1.40822 1.09724 2.10802 0.909203 0.901371 0.758416 0.725181 1.20128 0.959716 0.484977 1.27077 0.452811 0.429302 0.311569 0.27639 0.259457 0.189002 0.169337 0.34187 0.0627376 0.0231338 0.015597 0.00318234
threshold=1.0000000180025095e-35 1.0000000180025095e-35 1.0000000180025095e-35 1.0000000180025095e-35 1.0000000180025095e-35 1.0000000180025095e-35 1.0000000180025095e-35 1.0000000180025095e-35 1.0000000180025095e-35 1.0000000180025095e-35 1.0000000180025095e-35 1.0000000180025095e-35 1.0000000180025095e-35 1.0000000180025095e-35 1.0000000180025095e-35 1.0000000180025095e-35 1.0000000180025095e-35 1.0000000180025095e-35 1.0000000180025095e-35 1.0000000180025095e-35 1.0000000180025095e-35 1.0000000180025095e-35 1.0000000180025095e-35 1.0000000180025095e-35 1.0000000180025095e-35 1.0000000180025095e-35 1.0000000180025095e-35 1.0000000180025095e-35 1.0000000180025095e-35 1.0000000180025095e-35 1.0000000180025095e-35 1.0000000180025095e-35 1.0000000180025095e-35 1.0000000180025095e-35 1.0000000180025095e-35 1.0000000180025095e-35 1.0000000180025095e-35 1.0000000180025095e-35 1.0000000180025095e-35 1.0000000180025095e-35 1.0000000180025095e-35 1.0000000180025095e-35 1.0000000180025095e-35 1.0000000180025095e-35 1.0000000180025095e-35 1.0000000180025095e-35 1.0000000180025095e-35 1.0000000180025095e-35 1.0000000180025095e-35 1.0000000180025095e-35 1.0000000180025095e-35 1.0000000180025095e-35 1.0000000180025095e-35 1.0000000180025095e-35 1.0000000180025095e-35 1.0000000180025095e-35 1.0000000180025095e-35 1.0000000180025095e-35 1.0000000180025095e-35 1.0000000180025095e-35 1.0000000180025095e-35 1.0000000180025095e-35 1.0000000180025095e-35 1.0000000180025095e-35 1.0000000180025095e-35 1.0000000180025095e-35 1.0000000180025095e-35 1.0000000180025095e-35 1.0000000180025095e-35 1.0000000180025095e-35 1.0000000180025095e-35 1.0000000180025095e-35 1.0000000180025095e-35 1.0000000180025095e-35 1.0000000180025095e-35 1.0000000180025095e-35 1.0000000180025095e-35 1.0000000180025095e-35 1.0000000180025095e-35 1.0000000180025095e-35 1.0000000180025095e-35 1.0000000180025095e-35 1.0000000180025095e-35 1.0000000180025095e-35 1.0000000180025095e-35 1.0000000180025095e-35 1.0000000180025095e-35 1.0000000180025095e-35 1.0000000180025095e-35 1.0000000180025095e-35 1.0000000180025095e-35 1.0000000180025095e-35 1.0000000180025095e-35 1.0000000180025095e-35 1.0000000180025095e-35 1.0000000180025095e-35 1.0000000180025095e-35 1.0000000180025095e-35 1.0000000180025095e-35 1.0000000180025095e-35
decision_type=2 2 2 2 2 2 2 2 2 2 2 2 2 2 2 2 2 2 2 2 2 2 2 2 2 2 2 2 2 2 2 2 2 2 2 2 2 2 2 2 2 2 2 2 2 2 2 2 2 2 2 2 2 2 2 2 2 2 2 2 2 2 2 2 2 2 2 2 2 2 2 2 2 2 2 2 2 2 2 2 2 2 2 2 2 2 2 2 2 2 2 2 2 2 2 2 2 2 2 2
left_child=10 45 3 4 6 71 7 8 14 24 20 16 18 27 60 -13 17 39 23 43 40 22 -15 33 26 61 35 47 49 50 -18 -29 54 -9 -25 36 37 -6 67 65 51 44 -30 -16 -41 78 77 -10 -38 90 70 53 -46 58 -20 -27 89 -21 69 -60 81 -26 -40 -37 -57 80 -67 83 -69 72 -14 -4 73 76 -75 -11 -1 96 91 -80 -12 -3 -62 86 85 -85 -8 -88 -58 -43 -22 -2 -17 -73 95 97 -47 -82 -65 -44
right_child=1 2 5 -5 9 -7 38 12 13 75 11 15 29 21 19 92 30 -19 32 57 28 -23 -24 34 25 55 -28 31 42 -31 -32 -33 -34 -35 -36 63 48 -39 62 41 -42 56 99 -45 52 46 -48 -49 -50 -51 -52 -53 -54 -55 -56 64 88 -59 59 -61 82 -63 -64 98 -66 66 -68 68 -70 -71 -72 93 -74 74 -76 -77 -78 -79 79 -81 94 -83 -84 84 -86 -87 87 -89 -90 -91 -92 -93 -94 -95 -96 -97 -98 -99 -100 -101
leaf_value=0.16615115729038879 0.17426305827560315 -0.14285254907949016 0.099590935569560418 0.17792667571227214 0.061697218018444799 -0.1599948949559554 -0.18637733147366078 -0.13424137073121095 -0.16900958413651293 0.20365381174618388 0.11664476127816113 0.074998682133534181 -0.04279185653206357 -0.05311607613601485 0.13545909969152106 -0.19973990521517268 0.049966541036538546 -0.083205215559796028 -0.12984000144963881 -0.18470041153778827 0.1813008978350876 0.14535510424603257 0.021318817680085127 -0.084991216403876191 -0.17008815580375761 0.038600601231946613 0.10272397235660689 -0.081711795683887534 0.099697244884495814 0.12065577152550727 -0.17555295460886364 0.069003324381768663 0.073183483971701269 0.023479293548882268 0.077969191350546599 -0.098630047726211492 -0.14364988023452285 -0.091131999538210537 -0.11462359304473421 0.13264607247537685 0.0084193885663419142 0.13747983952606027 -0.026448448398829372 -0.0071634197561956953 -0.096792254382825266 0.14824332296760384 -0.033215375054371589 -0.049691829686889899 -0.015183597717947269 0.056847967393507469 -0.10889910873350414 0.060932922052436472 0.054097689398031841 0.038071389307906316 -0.0028492777314916731 0.18924742446120735 0.094146818271064359 -0.075752589609674723 0.015699172284405528 0.17343862452602729 -0.11970865490557396 -0.057805904789222352 0.0085665539961417136 -0.19621152945383905 0.079894070374246867 0.038880029737312784 0.14790279190338662 -0.032253036725225934 -0.18482350610495882 0.080919025129379984 0.063740545838097989 0.15794921370289258 0.10193061122694468 0.053723048870804507 0.15795416479870372 0.11341848733828709 0.097281316228663428 0.081852979990090266 0.086440903531114291 0.17346117030232724 0.17637379390734631 -0.17418596813340731 -0.051084995307475012 -0.16330367161705892 -0.20014263037249119 -0.10118860590333263 -0.18321282449846468 -0.11540917577933416 0.04502551009584612 0.17766775071957439 0.14561426674278979 0.14776137822754701 -0.15596311101465254 0.18463278091812191 0.17683480258920053 0.13003832686415484 0.17418794197860146 0.15813451980012172 -0.17338987211726842 -0.031119720831438259
leaf_weight=203.69628129899502 38.369995757937431 31.735835462808609 7.1082974374294308 9.6300086975097638 11.913872584700586 7.0361182689666739 38.523373037576675 270.10167600214481 23.719076395034794 4.648539185523985 5.8573700785636893 7.0882037431001672 4.7067160755395925 65.394680738449097 5.7181715518236169 5.3641755282878876 5.0206196159124357 7.5736513286828986 8.6779862493276578 7.0334119200706491 9.2918733358383196 8.8245983570814115 71.515330359339714 13.053835645318033 5.786156088113783 7.4981264770030984 5.9900164306163779 16.144299805164341 7.9066078662872323 7.159473091363906 4.7706945091485977 7.9390819519758216 8.6130055785179138 4.7928866297006598 6.0347814559936515 9.3263300508260727 14.535262435674669 7.7285732328891745 5.2029507458209974 5.0481655150651941 4.6183498650789252 9.2930317223072052 5.1552515327930442 13.305156677961349 5.1514842361211777 4.8692459613084811 5.5859545618295661 6.3949736356735221 6.0291510820388785 9.0030429959297198 8.6195805221796036 8.3075141906738263 6.7907484918832779 4.7630668431520453 7.0484913885593423 7.7547272592782974 5.3503742069005984 9.9455841779708862 7.0235452950000736 8.4840188473463058 4.728472635149954 7.3739073425531387 4.8531395494937897 5.1288506686687469 4.5113511234521866 4.6381533592939359 6.5042836517095566 4.6078435480594617 4.5340880900621414 4.8558283299207678 5.0117530673742294 9.9275452047586441 7.0207518935203543 5.7243214398622522 11.937117040157318 7.7652179151773453 4.6928622722625724 4.6832971870899192 7.8383418023586282 8.6900216788053513 8.5936957895755786 25.650284171104431 4.8084573894739151 7.4876041859388369 5.3723625838756552 7.5506650060415268 12.790304914116861 6.2467287331819525 5.8111146688461304 8.1691020876169205 7.7940072268247595 8.6019731312990171 4.6735217571258545 10.853605091571808 23.471388965845108 5.1351465135812751 5.5489805936813354 6.581545576453208 4.9717822223901749 9.8842729330062866
leaf_count=953 181 135 30 45 49 30 169 1168 101 19 27 31 20 271 24 23 22 33 36 31 42 36 295 56 24 31 25 67 33 29 20 33 35 20 25 39 62 32 23 23 19 41 21 54 22 23 23 27 26 39 37 36 28 21 29 34 24 42 31 40 20 30 21 22 20 20 29 20 20 22 21 45 31 26 55 34 22 21 36 41 40 109 20 32 23 32 55 27 24 38 36 40 20 48 109 24 26 31 21 40
internal_value=0.000300071 -0.0548772 -0.0734219 -0.0800473 -0.0829601 0.090486 -0.0929256 -0.0838663 -0.0560402 -0.0161479 0.118006 0.0764942 -0.10837 -0.0288444 -0.108843 -0.0744669 0.0973979 0.110944 -0.117188 -0.0382255 0.136264 -0.00454536 -0.0142389 -0.125126 -0.0368213 0.0215304 -0.0660934 -0.0941422 0.0751883 0.00173344 -0.0601284 -0.032003 -0.0212709 -0.131489 -0.0334279 -0.0830964 -0.0535506 0.00151431 -0.15317 0.124785 0.1473 0.0887284 0.0150434 0.0358622 0.0317953 0.143186 0.0916071 -0.143751 -0.106068 0.128005 -0.0448247 0.149705 -0.0110757 0.152553 -0.0730447 0.107458 0.12245 -0.121145 0.1547 0.102176 -0.146796 -0.107466 -0.0553322 -0.144057 0.14934 0.151784 0.102762 -0.164439 -0.108303 0.158109 0.012175 0.15379 0.159706 0.161486 0.124329 0.147644 0.164615 0.137751 0.159935 0.132439 0.162715 -0.156947 -0.0853949 -0.170974 -0.150513 -0.132396 -0.178143 -0.161194 0.0687736 0.15657 0.165324 0.169513 -0.179917 0.172147 0.168789 0.159228 0.162552 0.168812 -0.18556 -0.0295779
internal_weight=1444.6 983.552 899.364 864.439 854.809 34.9256 743.847 646.678 302.857 110.962 461.045 140.886 343.82 199.932 102.925 17.1259 123.761 113.969 318.323 36.0023 320.159 145.735 136.91 293.983 98.5481 32.9243 65.6238 54.1974 49.0351 25.4975 9.79131 24.0834 24.3395 274.895 19.0886 59.6338 40.2069 19.6424 97.1691 106.396 271.124 45.614 22.9461 19.0233 16.9904 84.1878 20.6875 30.1141 20.5644 26.0889 18.338 266.505 11.9422 258.198 15.7265 19.7642 28.6236 16.979 253.435 15.5076 66.923 13.1601 10.0561 19.427 12.2661 60.7816 11.1424 87.113 9.14193 237.927 9.71847 27.8894 233.071 226.051 17.6614 12.4138 208.389 15.1015 63.5003 16.5284 49.6391 57.3861 9.53693 77.971 20.4106 15.0383 57.5604 19.037 11.1615 17.4621 17.0859 46.972 10.0377 20.7812 43.7818 20.3104 10.4182 15.1752 10.1006 15.0395
internal_count=6316 4220 3829 3676 3631 153 3163 2741 1265 468 2096 629 1476 830 435 74 555 513 1369 151 1467 602 566 1269 415 139 276 228 211 107 42 100 100 1188 81 251 169 81 422 480 1256 200 94 78 73 391 93 128 88 117 78 1237 50 1201 65 85 127 73 1180 71 284 54 44 82 54 280 49 378 40 1109 41 123 1087 1056 81 53 975 70 298 77 231 244 40 338 87 64 251 82 48 79 78 221 43 93 204 95 49 71 43 61
is_linear=0
shrinkage=0.120816


Tree=5
num_leaves=89
num_cat=0
split_feature=29 12 864 21 1426 1859 23 1563 2 898 105 95 1846 178 1489 1645 1802 25 1740 1674 1271 1017 14 1362 1 194 65 139 131 1243 866 907 147 72 34 1649 1746 996 117 14 1258 1194 83 179 44 70 46 1537 984 1740 101 134 1358 1207 74 82 79 94 1251 1365 942 1883 220 1714 1532 102 1025 198 1254 1740 1515 147 106 56 45 1817 12 1426 139 95 103 34 993 100 1591 19 1722 1672
split_gain=523.451 201.072 53.687 36.8612 31.6422 31.4175 31.0914 21.4182 21.4986 29.3993 20.4624 25.7449 25.2838 20.4222 20.1692 19.1333 18.668 17.524 16.0774 15.6497 13.465 13.4006 12.6967 9.15412 19.9846 10.6929 8.24456 7.52756 6.9998 6.29888 6.24187 5.84683 8.42929 5.40741 5.17381 5.13118 8.28246 4.57204 4.52495 6.88096 4.47579 4.41275 4.11558 3.79417 3.54634 3.36963 3.32418 2.84831 2.64103 3.57768 2.62682 5.27359 2.35129 2.99865 2.32539 2.27959 2.25923 2.14938 2.08026 1.81216 1.60744 1.63521 1.74146 3.69002 1.56529 1.46553 1.4157 1.39685 1.26564 1.24792 1.85666 1.18138 1.16067 2.0432 1.15752 0.992055 0.97444 0.764912 0.745122 0.726601 0.675639 0.505587 0.406882 0.257386 0.513857 0.148473 0.0859778 0.0729305
threshold=1.0000000180025095e-35 1.0000000180025095e-35 1.0000000180025095e-35 1.0000000180025095e-35 1.0000000180025095e-35 1.0000000180025095e-35 1.0000000180025095e-35 1.0000000180025095e-35 1.0000000180025095e-35 1.0000000180025095e-35 1.0000000180025095e-35 1.0000000180025095e-35 1.0000000180025095e-35 1.0000000180025095e-35 1.0000000180025095e-35 1.0000000180025095e-35 1.0000000180025095e-35 1.0000000180025095e-35 1.0000000180025095e-35 1.0000000180025095e-35 1.0000000180025095e-35 1.0000000180025095e-35 1.0000000180025095e-35 1.0000000180025095e-35 1.0000000180025095e-35 1.0000000180025095e-35 1.0000000180025095e-35 1.0000000180025095e-35 1.0000000180025095e-35 1.0000000180025095e-35 1.0000000180025095e-35 1.0000000180025095e-35 1.0000000180025095e-35 1.0000000180025095e-35 1.0000000180025095e-35 1.0000000180025095e-35 1.0000000180025095e-35 1.0000000180025095e-35 1.0000000180025095e-35 1.0000000180025095e-35 1.0000000180025095e-35 1.0000000180025095e-35 1.0000000180025095e-35 1.0000000180025095e-35 1.0000000180025095e-35 1.0000000180025095e-35 1.0000000180025095e-35 1.0000000180025095e-35 1.0000000180025095e-35 1.0000000180025095e-35 1.0000000180025095e-35 1.0000000180025095e-35 1.0000000180025095e-35 1.0000000180025095e-35 1.0000000180025095e-35 1.0000000180025095e-35 1.0000000180025095e-35 1.0000000180025095e-35 1.0000000180025095e-35 1.0000000180025095e-35 1.0000000180025095e-35 1.0000000180025095e-35 1.0000000180025095e-35 1.0000000180025095e-35 1.0000000180025095e-35 1.0000000180025095e-35 1.0000000180025095e-35 1.0000000180025095e-35 1.0000000180025095e-35 1.0000000180025095e-35 1.0000000180025095e-35 1.0000000180025095e-35 1.0000000180025095e-35 1.0000000180025095e-35 1.0000000180025095e-35 1.0000000180025095e-35 1.0000000180025095e-35 1.0000000180025095e-35 1.0000000180025095e-35 1.0000000180025095e-35 1.0000000180025095e-35 1.0000000180025095e-35 1.0000000180025095e-35 1.0000000180025095e-35 1.0000000180025095e-35 1.0000000180025095e-35 1.0000000180025095e-35 1.0000000180025095e-35
decision_type=2 2 2 2 2 2 2 2 2 2 2 2 2 2 2 2 2 2 2 2 2 2 2 2 2 2 2 2 2 2 2 2 2 2 2 2 2 2 2 2 2 2 2 2 2 2 2 2 2 2 2 2 2 2 2 2 2 2 2 2 2 2 2 2 2 2 2 2 2 2 2 2 2 2 2 2 2 2 2 2 2 2 2 2 2 2 2 2
left_child=10 38 3 5 69 6 7 8 15 16 21 37 17 23 20 18 43 68 19 -3 -11 35 55 25 54 26 31 42 -20 -19 50 32 -7 34 -24 40 46 47 72 82 41 59 -17 -10 -18 -26 -37 67 49 -31 78 -52 53 64 -25 58 -33 -32 -23 60 61 62 66 -64 75 -15 -1 80 -13 70 -4 -47 77 -74 -16 -14 -49 86 81 -80 83 -9 -40 -12 -85 -57 -2 -71
right_child=1 2 4 -5 -6 13 -8 30 9 14 11 12 52 65 74 27 44 29 28 -21 -22 22 33 24 45 -27 -28 -29 -30 48 57 56 -34 -35 -36 36 -38 -39 39 -41 -42 -43 -44 -45 -46 71 -48 76 -50 -51 51 -53 -54 -55 -56 85 -58 -59 -60 -61 -62 -63 63 -65 -66 -67 -68 -69 -70 87 -72 -73 73 -75 -76 -77 -78 -79 79 -81 -82 -83 -84 84 -86 -87 -88 -89
leaf_value=0.15875906930664299 0.16591709575619479 -0.13749704376929442 0.053664904591458104 0.17446058028763101 -0.14437034248881003 0.001535521104388534 0.17983680941258723 -0.17521450113245488 -0.13630995520111799 -0.005935119354317204 0.16661624439890849 0.057185915516632886 0.052871354808760512 0.16958079262655723 -0.17636677647664389 -0.08393424135718483 -0.03498641899703072 0.0036939452154248638 -0.051844156367144012 -0.010743387268464896 -0.12375444106543629 0.13545016651520733 0.13446498585703431 -0.15475930247908234 0.034153071857089226 0.087397401067766389 0.048063714158033434 0.10591342270178705 -0.12497506665449094 -0.16141871245007389 -0.1050134658107577 -0.15894568646978857 -0.1309812277849518 -0.058500682754378246 -0.034425477305217604 -0.068001638488602689 0.16524369442442549 0.016599003484316359 0.16751737804773847 0.0040667334125842301 0.054570164964347939 0.027131183116787735 0.0353652506697201 -0.024742737334829401 0.092843249048364565 0.099349208004489514 0.07300762994670261 0.11269131848363477 -0.18275470885979403 -0.04272982164223367 0.0042241200464730368 -0.17968167970457294 0.18125300898462948 0.16830779600742282 -0.051193770025623982 0.18110185646436389 -0.06630427621788848 0.0075199741040504883 0.042171514656092687 0.073405091533252989 0.095025584568409316 0.092745140517712196 0.025743632195373931 0.15111544251455114 0.012075383845426014 0.084023864278882976 0.089217269443666217 0.084994398202152655 0.14476687424174778 0.15037298376113212 0.152881993671346 0.177268553790878 0.061745961790770534 0.16958073176218358 -0.10382031531845089 0.11790871237341509 0.032688426147334609 0.10655094036389265 -0.12498643468371869 -0.1820164669497763 0.11239546721097052 -0.14908809877859483 0.11825839350958851 0.16793497313228339 0.12346934242143183 0.14903881305658045 0.14553432658335899 0.17570999580942298
leaf_weight=184.14206317067146 39.26391313970089 186.57836055755615 4.541958674788475 8.6974302530288679 6.9729811102151862 16.102293074131012 6.4211982339620581 36.175265684723854 78.86989638209343 164.27034166455269 23.623653501272202 5.4455958157777768 6.4487304240465253 6.8890712708234769 11.726975142955782 11.438858255743986 6.4516525566577894 7.926286160945895 79.510968640446663 15.396558091044424 15.462670236825941 7.5511118471622467 6.0914688110351562 5.6053531020879728 7.4575636088848123 6.4848220497369757 6.8817679286003104 7.1735348701477042 25.161159619688988 6.4135042577981958 5.0084633976221067 17.564686164259914 12.370579749345781 11.128305733203888 4.6454928666353226 5.0319345891475677 8.0975003838539124 5.2378918677568427 6.4262057989835739 8.7681302428245544 8.1684177219867689 4.4960765838623038 6.6553698182106009 4.7319776713848105 6.1682259291410446 5.9221192598342896 4.6781478226184845 4.2670981436967832 7.0645426213741294 8.802756205201149 4.4558657109737378 4.6172337532043457 4.8013742268085471 5.3903938531875601 7.3275158107280731 5.6325358748435974 5.0011170208454123 4.8642988204956055 6.5412000864744186 4.7184752374887458 7.7436359971761695 6.8013165444135657 4.7633192390203485 12.318468183279037 5.5460289269685736 5.2606770247220993 4.5133969932794562 5.1677017956972113 4.3915190994739532 4.3437791317701331 7.1579345166683197 5.7771648764610291 5.4277074486017209 4.9318366199731827 4.6673601716756812 7.4920912981033325 4.6772877871990204 4.0028851777315131 15.194185048341753 4.4251691401004782 5.8515824675559989 18.159775197505951 4.7015581429004669 7.8791614472866067 8.6188698261976242 6.1219538152217865 5.7897137254476538 10.219422295689583
leaf_count=923 199 848 22 42 31 66 30 169 346 684 119 24 29 31 52 50 28 35 344 63 65 34 27 24 31 28 29 29 110 28 23 78 53 45 20 22 41 23 32 38 36 20 28 20 25 27 20 21 32 38 20 21 22 27 30 26 22 21 29 22 37 31 22 60 23 22 22 24 21 20 32 27 26 24 21 35 21 20 67 20 28 82 23 39 40 30 29 48
internal_value=0.000342417 -0.04989 -0.0666027 -0.0725557 0.0839427 -0.0751438 -0.0842394 -0.0866117 -0.0785496 -0.0546499 0.109631 0.0704861 0.0194106 -0.0145589 -0.0278062 -0.0995931 -0.109338 -0.0432134 -0.107919 -0.127838 -0.0160914 0.127057 0.068214 -0.0331574 0.0195478 -0.0594143 -0.0758906 0.00145697 -0.0694562 -0.0888068 -0.140741 -0.0926235 -0.0561211 0.000432852 0.0615068 0.138037 0.0752743 0.124966 0.134267 0.0841742 0.142729 0.145859 -0.0400688 -0.130007 0.0275696 0.0978221 -4.92238e-05 0.134398 -0.121672 -0.0929892 -0.151541 -0.089666 0.103862 0.0887127 -0.0963515 0.125483 -0.138537 -0.0497228 0.0923463 0.148227 0.149819 0.151801 0.153738 0.116268 0.0664562 0.132853 0.157111 0.145414 0.0966258 0.144663 0.114616 0.138204 0.150987 0.113446 -0.155955 0.0880133 0.0711204 0.158836 -0.15909 -0.138124 0.152142 -0.166575 0.147103 0.157845 0.144989 0.164852 0.163403 0.168498
internal_weight=1391.71 953.476 874.164 840.928 33.2361 832.23 723.585 717.164 624.264 292.349 438.231 135.046 69.7228 108.645 196.127 331.915 96.2218 40.0442 306.647 201.975 179.733 303.185 47.7121 96.495 32.0897 64.4053 57.9204 25.2678 104.672 30.2071 92.9003 51.0387 28.4729 21.8653 10.737 255.473 17.8076 65.3232 79.312 19.8959 237.665 229.497 18.0942 83.6019 12.6199 19.1568 9.71008 60.0854 22.2808 15.2163 83.0275 9.0731 29.6786 24.8772 12.9329 25.8468 22.5658 9.87276 14.0923 225.001 220.282 212.539 205.737 17.0818 19.4869 12.1497 188.655 51.141 9.83711 26.2631 11.6999 11.6993 59.4161 10.3595 16.3943 13.9408 8.94439 49.0565 73.9544 19.6194 45.9733 54.335 11.1278 40.1217 16.498 11.7545 45.0536 14.5632
internal_count=6316 4220 3829 3676 153 3634 3166 3136 2713 1241 2096 629 314 468 822 1472 419 178 1365 911 749 1467 211 415 139 276 248 107 454 133 423 219 119 92 47 1256 83 315 391 93 1173 1137 78 366 53 85 42 292 98 66 379 41 136 114 54 119 100 44 63 1117 1095 1058 1027 82 87 53 945 250 45 122 54 54 298 50 73 64 42 248 338 87 226 251 55 198 79 56 228 68
is_linear=0
shrinkage=0.120816


Tree=6
num_leaves=99
num_cat=0
split_feature=29 12 864 21 1563 1008 211 1290 4 97 1475 149 38 126 1537 113 59 11 1148 1 143 1538 64 942 147 1175 1586 1800 942 944 1441 1752 1056 373 866 1102 874 1012 40 58 150 1148 1791 141 1515 949 117 72 59 82 70 1565 1365 54 986 1578 31 1560 1846 71 1219 50 94 993 245 1831 1040 146 1672 1426 1845 993 9 134 134 83 143 1651 1221 232 98 71 1119 1298 1012 1531 146 46 148 1560 62 14 83 38 907 50 38 141
split_gain=427.86 163.978 43.2144 30.169 26.7525 26.0463 23.6515 18.5329 17.8326 21.9149 22.0602 17.4973 17.9231 14.7779 13.3794 12.9973 12.4947 11.3064 11.0183 10.5448 10.389 12.6546 9.70833 8.38572 7.7658 7.80725 7.47254 7.91035 7.25281 6.48959 5.98568 7.1669 10.0119 5.8315 5.54005 5.26821 5.19237 5.11775 4.84393 4.79432 4.57753 4.33947 10.126 5.1196 4.22356 3.65064 4.41604 3.47651 3.19565 3.1142 3.07808 3.05547 3.67543 2.84362 2.78467 9.71828 2.40754 2.28526 3.85522 2.02468 2.0224 1.77685 1.76731 1.69542 3.69913 1.92791 1.68829 1.60357 1.53225 1.43088 1.41208 1.37582 2.10575 1.34875 1.16848 1.70086 1.81801 1.16485 1.16126 1.15995 1.00042 0.93838 0.901029 0.817623 0.757711 0.742224 0.557225 0.515852 0.456322 0.396866 0.369056 0.550743 0.322672 0.313381 0.30391 0.0736747 0.0653551 0.0360568
